{"learner":{"attributes":{"scikit_learn":"{\"_estimator_type\": \"regressor\"}"},"feature_names":[],"feature_types":[],"gradient_booster":{"model":{"gbtree_model_param":{"num_parallel_tree":"1","num_trees":"100"},"iteration_indptr":[0,1,2,3,4,5,6,7,8,9,10,11,12,13,14,15,16,17,18,19,20,21,22,23,24,25,26,27,28,29,30,31,32,33,34,35,36,37,38,39,40,41,42,43,44,45,46,47,48,49,50,51,52,53,54,55,56,57,58,59,60,61,62,63,64,65,66,67,68,69,70,71,72,73,74,75,76,77,78,79,80,81,82,83,84,85,86,87,88,89,90,91,92,93,94,95,96,97,98,99,100],"tree_info":[0,0,0,0,0,0,0,0,0,0,0,0,0,0,0,0,0,0,0,0,0,0,0,0,0,0,0,0,0,0,0,0,0,0,0,0,0,0,0,0,0,0,0,0,0,0,0,0,0,0,0,0,0,0,0,0,0,0,0,0,0,0,0,0,0,0,0,0,0,0,0,0,0,0,0,0,0,0,0,0,0,0,0,0,0,0,0,0,0,0,0,0,0,0,0,0,0,0,0,0],"trees":[{"base_weights":[4.1543802E2,4.655343E4,-1.1178374E3,-1.11671715E2,6.212708E4,-1.8944081E3,2.2153296E3,-4.168769E1,3.3312313E1,9.258123E2,3.3572996E3,4.6954623E2,-2.2748596E3,1.14629005E2,7.0087427E3,-1.2056322E3,4.139993E3,-2.415342E3,-1.481168E3,-1.9936223E3,1.4142784E3,2.417771E3,6.363539E2,1.442432E2,-1.1615944E2,1.0937437E3,3.8371848E2,3.1083082E1,-2.4631682E3,-1.9928334E3,7.2707697E2,3.3312313E1,-2.2707986E3,2.2746987E3,-1.7940061E3,3.7831232E2,8.284309E2,-8.650065E2,9.371847E1,8.996847E1,-1.0583586E1,-2.4922703E3,-8.506307E2,7.216616E2,-2.2857214E3,1.2121846E2,-8.891692E1,-3.1687689E1,-1.1810034E2,3.013118E3,4.1874368E2,-9.878153E1,-2.6687689E1,-6.558359E1,1.7604104E3,4.9369324E1,-1.5631306E3,-5.0583584E1,-1.2533556E2,-6.558359E1,1.3312311E1,3.312311E0,5.0812313E1,2.0812311E1,-2.441632E3,1.9218718E2,9.353539E1,6.621847E1,-9.283384E2,2.9416416E1,1.0996847E2,-1.7833838E2,1.8312311E1,-2.1687689E1,-8.975025E1,-1.2622405E2,-2.1687689E1,-6.6876893E0,-6.293769E1,-1.6876892E0,-1.168769E1],"categories":[],"categories_nodes":[],"categories_segments":[],"categories_sizes":[],"default_left":[0,0,0,0,0,0,0,0,0,0,0,0,0,0,0,0,0,0,0,0,0,0,0,0,0,0,0,0,0,0,0,0,0,0,0,0,0,0,0,0,0,0,0,0,0,0,0,0,0,0,0,0,0,0,0,0,0,0,0,0,0,0,0,0,0,0,0,0,0,0,0,0,0,0,0,0,0,0,0,0,0],"id":0,"left_children":[1,3,5,7,9,11,13,-1,-1,-1,-1,15,17,19,21,23,25,27,29,31,33,35,-1,37,-1,39,-1,-1,41,43,45,-1,47,49,51,-1,53,55,-1,-1,-1,57,59,61,63,-1,-1,-1,-1,65,67,-1,-1,-1,69,71,73,-1,-1,-1,-1,-1,-1,-1,75,-1,-1,-1,77,-1,-1,79,-1,-1,-1,-1,-1,-1,-1,-1,-1],"loss_changes":[1.759612E10,5.8209034E9,6.280106E8,2.240647E6,6.998221E7,1.773447E8,4.6239478E8,0E0,0E0,0E0,0E0,1.771536E8,1.5265856E7,9.323914E7,3.367668E8,3.0506344E7,8.850552E7,2.2156544E7,3.3085652E7,1.1097192E7,6.205075E7,6.7376E7,0E0,1.9082634E7,0E0,5.9076835E6,0E0,0E0,4.44992E6,1.993552E7,2.9825882E7,0E0,2.94816E5,2.203632E7,8.9964E4,0E0,1.8265334E7,4.5456055E6,0E0,0E0,0E0,3.9328E5,2.4089318E6,5.1190338E5,9.862896E6,0E0,0E0,0E0,0E0,4.196456E6,8.549175E6,0E0,0E0,0E0,1.793024E6,3.53937E5,2.68904E5,0E0,0E0,0E0,0E0,0E0,0E0,0E0,2.232E6,0E0,0E0,0E0,6.19266E5,0E0,0E0,1.614657E4,0E0,0E0,0E0,0E0,0E0,0E0,0E0,0E0,0E0],"parents":[2147483647,0,0,1,1,2,2,3,3,4,4,5,5,6,6,11,11,12,12,13,13,14,14,15,15,16,16,17,17,18,18,19,19,20,20,21,21,23,23,25,25,28,28,29,29,30,30,32,32,33,33,34,34,36,36,37,37,41,41,42,42,43,43,44,44,49,49,50,50,54,54,55,55,56,56,64,64,68,68,71,71],"right_children":[2,4,6,8,10,12,14,-1,-1,-1,-1,16,18,20,22,24,26,28,30,32,34,36,-1,38,-1,40,-1,-1,42,44,46,-1,48,50,52,-1,54,56,-1,-1,-1,58,60,62,64,-1,-1,-1,-1,66,68,-1,-1,-1,70,72,74,-1,-1,-1,-1,-1,-1,-1,76,-1,-1,-1,78,-1,-1,80,-1,-1,-1,-1,-1,-1,-1,-1,-1],"split_conditions":[-9.142882E0,-4.8551133E-1,3.9346814E0,-1.4166306E1,6.8163967E0,-1.7637503E0,4.7965014E-1,-4.168769E1,3.3312313E1,9.258123E2,3.3572996E3,-1.3664888E0,1.7809322E0,-6.976523E-1,3.7328175E-1,-9.6530676E-2,5.1744413E-1,-8.3051133E-1,1.7560095E-1,4.881802E0,3.3008987E-1,4.7442812E-2,6.363539E2,5.2749956E-1,-1.1615944E2,1.0483529E1,3.8371848E2,3.1083082E1,7.850377E-1,-7.164223E-1,3.2577682E-1,3.3312313E1,-2.8812923E0,1.8800189E-1,8.061373E-2,3.7831232E2,-5.462903E-1,2.159367E0,9.371847E1,8.996847E1,-1.0583586E1,-8.597441E-1,-8.240074E0,8.453178E0,-1.8816156E1,1.2121846E2,-8.891692E1,-3.1687689E1,-1.1810034E2,2.7941725E-1,-2.0443292E-1,-9.878153E1,-2.6687689E1,-6.558359E1,2.3989831E-1,-1.2445565E1,3.1714141E0,-5.0583584E1,-1.2533556E2,-6.558359E1,1.3312311E1,3.312311E0,5.0812313E1,2.0812311E1,1.6271996E-1,1.9218718E2,9.353539E1,6.621847E1,-3.626409E1,2.9416416E1,1.0996847E2,-1.8109943E1,1.8312311E1,-2.1687689E1,-8.975025E1,-1.2622405E2,-2.1687689E1,-6.6876893E0,-6.293769E1,-1.6876892E0,-1.168769E1],"split_indices":[2,17,1,0,1,2,3,0,0,0,0,1,1,4,6,14,11,17,8,1,10,16,0,5,0,0,0,0,17,15,8,0,2,16,9,0,5,0,0,0,0,11,0,0,0,0,0,0,0,5,18,0,0,0,5,0,0,0,0,0,0,0,0,0,8,0,0,0,0,0,0,0,0,0,0,0,0,0,0,0,0],"split_type":[0,0,0,0,0,0,0,0,0,0,0,0,0,0,0,0,0,0,0,0,0,0,0,0,0,0,0,0,0,0,0,0,0,0,0,0,0,0,0,0,0,0,0,0,0,0,0,0,0,0,0,0,0,0,0,0,0,0,0,0,0,0,0,0,0,0,0,0,0,0,0,0,0,0,0,0,0,0,0,0,0],"sum_hessian":[2.47E2,7E0,2.4E2,2E0,5E0,1.95E2,4.5E1,1E0,1E0,1E0,4E0,2.7E1,1.68E2,3.2E1,1.3E1,1.9E1,8E0,1.41E2,2.7E1,1.2E1,2E1,8E0,5E0,9E0,1E1,5E0,3E0,2E0,1.39E2,2.2E1,5E0,1E0,1.1E1,1.6E1,4E0,1E0,7E0,6E0,3E0,3E0,2E0,1.36E2,3E0,2E0,2E1,3E0,2E0,1E0,1E1,1.1E1,5E0,3E0,1E0,2E0,5E0,3E0,3E0,2E0,1.34E2,2E0,1E0,1E0,1E0,1E0,1.9E1,5E0,6E0,3E0,2E0,2E0,3E0,2E0,1E0,1E0,2E0,1.8E1,1E0,1E0,1E0,1E0,1E0],"tree_param":{"num_deleted":"0","num_feature":"22","num_nodes":"81","size_leaf_vector":"1"}},{"base_weights":[6.847961E2,3.8795945E4,-7.966054E2,-1.1554934E2,5.973458E4,-1.6279443E3,2.7924778E3,9.02667E2,3.2230078E3,-1.8189817E3,7.6622812E3,8.73013E3,5.487108E2,-9.5895886E2,-2.210969E3,4.4985495E2,9.14457E1,4.8610995E2,6.3956885E2,-1.4806652E3,1.778862E3,-1.6322937E3,1.1698654E3,1.8144571E2,-2.2861182E3,1.0891827E2,-6.84091E1,8.677632E1,-2.2232024E3,2.2038135E3,-5.781342E2,-1.8729342E3,1.362665E3,3.5472776E3,-8.092181E2,-2.420367E3,-4.8679462E2,-1.1597766E2,-3.149237E1,2.6429336E3,-4.3638268E1,4.734432E1,-6.1364246E1,-2.0065464E3,9.346935E1,-1.1054303E1,9.821387E1,5.0030127E2,2.333004E2,5.0344646E1,-9.4254456E1,-1.2329916E2,-9.0536804E2,1.0988257E2,-1.4326125E3,2.841763E3,4.170427E1,1.2576899E1,-9.026074E0,3.0046982E1,-2.151944E3,4.1445698E1,-3.923102E0,1.2979505E1,-6.3075256E1,-2.3887988E2,-8.953551E1,5.4825832E1,1.5206305E2,-2.263896E3,5.5354504E1,-2.1145496E1,3.2295043E0,-6.436902E0,-1.1583483E2],"categories":[],"categories_nodes":[],"categories_segments":[],"categories_sizes":[],"default_left":[0,0,0,0,0,0,0,0,0,0,0,0,0,0,0,0,0,0,0,0,0,0,0,0,0,0,0,0,0,0,0,0,0,0,0,0,0,0,0,0,0,0,0,0,0,0,0,0,0,0,0,0,0,0,0,0,0,0,0,0,0,0,0,0,0,0,0,0,0,0,0,0,0,0,0],"id":1,"left_children":[1,3,5,-1,7,9,11,-1,-1,13,15,17,19,21,23,-1,-1,25,-1,27,29,31,33,-1,35,-1,-1,-1,37,39,41,43,45,47,49,51,53,-1,-1,55,-1,57,-1,59,-1,-1,-1,61,-1,-1,-1,-1,63,-1,65,67,-1,-1,-1,-1,69,-1,-1,-1,-1,71,-1,-1,-1,73,-1,-1,-1,-1,-1],"loss_changes":[1.3580805E10,7.884552E9,6.967747E8,0E0,1.8085888E7,3.49371E8,5.8140883E8,0E0,0E0,6.058368E7,1.4691024E7,3.95554E8,8.50164E7,8.791426E7,6.4031744E7,0E0,0E0,1.8670078E7,0E0,3.490427E7,2.2307888E7,3.570475E7,7.344698E7,0E0,2.925792E7,0E0,0E0,0E0,2.27768E5,2.662444E7,1.6822242E6,2.5251856E7,4.2454905E6,2.15268E7,1.9483196E7,5.853056E6,2.8538354E7,0E0,0E0,3.38416E6,0E0,1.8499425E5,0E0,1.7216352E7,0E0,0E0,0E0,6.356052E5,0E0,0E0,0E0,0E0,2.4018975E6,0E0,2.992016E6,1.53964E6,0E0,0E0,0E0,0E0,1.7100544E7,0E0,0E0,0E0,0E0,1.9485855E5,0E0,0E0,0E0,4.098512E6,0E0,0E0,0E0,0E0,0E0],"parents":[2147483647,0,0,1,1,2,2,4,4,5,5,6,6,9,9,10,10,11,11,12,12,13,13,14,14,17,17,19,19,20,20,21,21,22,22,24,24,28,28,29,29,30,30,31,31,32,32,33,33,34,34,35,35,36,36,39,39,41,41,43,43,47,47,52,52,54,54,55,55,60,60,65,65,69,69],"right_children":[2,4,6,-1,8,10,12,-1,-1,14,16,18,20,22,24,-1,-1,26,-1,28,30,32,34,-1,36,-1,-1,-1,38,40,42,44,46,48,50,52,54,-1,-1,56,-1,58,-1,60,-1,-1,-1,62,-1,-1,-1,-1,64,-1,66,68,-1,-1,-1,-1,70,-1,-1,-1,-1,72,-1,-1,-1,74,-1,-1,-1,-1,-1],"split_conditions":[-9.142882E0,-1.2396433E1,4.055708E0,-1.1554934E2,6.8163967E0,9.8611265E-1,-8.2390505E-1,9.02667E2,3.2230078E3,-6.0073286E-1,-3.5878341E0,6.156628E-1,-1.451349E-1,1.0164797E-1,-7.4195313E-1,4.4985495E2,9.14457E1,5.6389923E0,6.3956885E2,-2.1803589E-1,1.7627016E1,5.380211E-1,2.4496447E-1,1.8144571E2,3.0775063E0,1.0891827E2,-6.84091E1,8.677632E1,7.9161124E0,1.0793872E-1,2.1732323E1,6.158623E-1,-2.0240902E1,-1.04591124E-1,-1.7637503E0,7.294767E-1,-4.8425508E-1,-1.1597766E2,-3.149237E1,4.9527717E-1,-4.3638268E1,1.8226988E1,-6.1364246E1,-6.0057586E-1,9.346935E1,-1.1054303E1,9.821387E1,-2.4627905E1,2.333004E2,5.0344646E1,-9.4254456E1,-1.2329916E2,-2.7037768E0,1.0988257E2,-1.9065505E-1,-3.3754012E-1,4.170427E1,1.2576899E1,-9.026074E0,3.0046982E1,4.935174E-1,4.1445698E1,-3.923102E0,1.2979505E1,-6.3075256E1,4.2782903E0,-8.953551E1,5.4825832E1,1.5206305E2,-6.709153E-1,5.5354504E1,-2.1145496E1,3.2295043E0,-6.436902E0,-1.1583483E2],"split_indices":[2,2,1,0,1,6,2,0,0,2,0,3,5,1,19,0,0,1,0,6,0,12,5,0,1,0,0,0,1,12,0,17,0,5,2,17,6,0,0,20,0,0,0,13,0,0,0,0,0,0,0,0,1,0,6,16,0,0,0,0,6,0,0,0,0,0,0,0,0,11,0,0,0,0,0],"split_type":[0,0,0,0,0,0,0,0,0,0,0,0,0,0,0,0,0,0,0,0,0,0,0,0,0,0,0,0,0,0,0,0,0,0,0,0,0,0,0,0,0,0,0,0,0,0,0,0,0,0,0,0,0,0,0,0,0,0,0,0,0,0,0,0,0,0,0,0,0,0,0,0,0,0,0],"sum_hessian":[2.39E2,8E0,2.31E2,3E0,5E0,1.88E2,4.3E1,1E0,4E0,1.85E2,3E0,1.1E1,3.2E1,5.9E1,1.26E2,2E0,1E0,4E0,7E0,1.2E1,2E1,4.5E1,1.4E1,1E0,1.25E2,2E0,2E0,2E0,1E1,1.7E1,3E0,4.2E1,3E0,6E0,8E0,1.16E2,9E0,9E0,1E0,1.5E1,2E0,2E0,1E0,4.1E1,1E0,1E0,2E0,2E0,4E0,3E0,5E0,1.12E2,4E0,2E0,7E0,1.3E1,2E0,1E0,1E0,2E0,3.9E1,1E0,1E0,1E0,3E0,2E0,5E0,2E0,1.1E1,3.8E1,1E0,1E0,1E0,1E0,3.7E1],"tree_param":{"num_deleted":"0","num_feature":"22","num_nodes":"75","size_leaf_vector":"1"}},{"base_weights":[1.4625385E2,3.2712729E4,-9.7735846E2,2.7059912E3,-1.1121624E2,-1.2231978E3,7.09936E3,-1.8409076E3,4.0422488E2,5.396238E2,-7.111433E1,-1.0313165E3,-2.1869448E3,-1.3876204E2,3.6775645E3,-1.5125657E3,4.917628E2,1.3509213E3,-2.2621829E3,-1.3336184E3,1.3484104E3,6.386916E2,3.6582413E2,-1.7906566E3,1.368394E3,1.9455422E3,-1.5285703E3,1.7690955E2,-7.559045E1,-2.293456E3,-3.6143335E2,-4.6757367E2,-1.8559849E3,3.720089E3,1.3497429E1,8.203771E1,-9.1028906E2,-1.9324382E3,4.130879E2,9.999856E1,-1.3158435E1,-8.718814E2,3.029997E3,-1.1325025E1,-8.7184204E1,-4.4966167E1,-1.1554732E2,4.0864326E1,-6.7971825E1,-8.7279106E1,2.9438367E2,-2.0236158E3,2.903429E1,2.1435558E2,5.785042E1,1.7109196E3,-1.34579E3,-1.032207E1,-5.794961E1,-2.0204323E3,2.4284063E1,-1.2779358E1,4.3760952E1,-1.0777948E1,-5.461316E1,4.0409554E1,1.65636E2,9.209931E2,-6.3291645E1,-5.4944897E1,-2.2093281E3,-3.8250244E0,9.88597E1,6.2158716E2,-1.9153328E3,-2.3145889E3,-8.11869E2,5.9762928E1,7.84432E0,-4.1875645E1,-1.1840857E2,5.541946E1,-8.800422E0,-1.1118086E2,-3.301598E1,-2.8387836E1,-1.180876E2,3.931836E0,-6.809499E1],"categories":[],"categories_nodes":[],"categories_segments":[],"categories_sizes":[],"default_left":[0,0,0,0,0,0,0,0,0,0,0,0,0,0,0,0,0,0,0,0,0,0,0,0,0,0,0,0,0,0,0,0,0,0,0,0,0,0,0,0,0,0,0,0,0,0,0,0,0,0,0,0,0,0,0,0,0,0,0,0,0,0,0,0,0,0,0,0,0,0,0,0,0,0,0,0,0,0,0,0,0,0,0,0,0,0,0,0,0],"id":2,"left_children":[1,3,5,-1,-1,7,9,11,13,-1,-1,15,17,19,21,23,25,27,29,31,33,35,-1,37,39,41,43,-1,-1,45,47,49,51,53,55,-1,57,59,61,-1,-1,63,65,-1,-1,-1,-1,-1,-1,-1,67,69,-1,-1,-1,71,73,-1,-1,75,-1,-1,-1,-1,-1,-1,-1,77,-1,-1,79,-1,-1,81,83,85,87,-1,-1,-1,-1,-1,-1,-1,-1,-1,-1,-1,-1],"loss_changes":[8.777482E9,6.103588E9,4.6933715E8,0E0,0E0,2.2793635E8,2.3564995E8,4.3688896E7,1.1248528E8,0E0,0E0,3.8125828E7,3.3400768E7,9.953093E7,9.485091E7,3.3695904E7,4.115644E7,2.4133756E7,5.828608E6,1.3156368E7,7.90994E7,1.0806614E7,0E0,1.2046496E7,4.6481605E6,2.7084748E7,1.285613E6,0E0,0E0,6.03904E5,4.640148E6,1.3173115E7,8.935848E6,8.119688E6,4.1526376E7,0E0,2.8588325E5,8.215808E6,1.1507414E6,0E0,0E0,1.9847725E5,1.091624E6,0E0,0E0,0E0,0E0,0E0,0E0,0E0,9.96464E6,6.63336E5,0E0,0E0,0E0,3.95881E6,1.23956E7,0E0,0E0,9.852576E6,0E0,0E0,0E0,0E0,0E0,0E0,0E0,1.279457E6,0E0,0E0,1.067272E6,0E0,0E0,1.3598992E6,1.62691E6,8.01136E5,4.02554E6,0E0,0E0,0E0,0E0,0E0,0E0,0E0,0E0,0E0,0E0,0E0,0E0],"parents":[2147483647,0,0,1,1,2,2,5,5,6,6,7,7,8,8,11,11,12,12,13,13,14,14,15,15,16,16,17,17,18,18,19,19,20,20,21,21,23,23,24,24,25,25,26,26,29,29,30,30,31,31,32,32,33,33,34,34,36,36,37,37,38,38,41,41,42,42,50,50,51,51,55,55,56,56,59,59,67,67,70,70,73,73,74,74,75,75,76,76],"right_children":[2,4,6,-1,-1,8,10,12,14,-1,-1,16,18,20,22,24,26,28,30,32,34,36,-1,38,40,42,44,-1,-1,46,48,50,52,54,56,-1,58,60,62,-1,-1,64,66,-1,-1,-1,-1,-1,-1,-1,68,70,-1,-1,-1,72,74,-1,-1,76,-1,-1,-1,-1,-1,-1,-1,78,-1,-1,80,-1,-1,82,84,86,88,-1,-1,-1,-1,-1,-1,-1,-1,-1,-1,-1,-1],"split_conditions":[-9.142882E0,1.00547E0,8.274649E-1,2.7059912E3,-1.1121624E2,2.5500503E0,1.49318075E1,-7.4738705E-1,3.2782033E-1,5.396238E2,-7.111433E1,-4.5483822E-1,-7.4195313E-1,6.335381E-2,-2.0931567E-1,6.4315057E-1,7.599776E0,-7.642927E0,6.691017E-1,-2.4163389E-1,-8.240074E0,6.0467654E-1,3.6582413E2,3.300885E-1,-2.2874882E0,-5.185116E-1,-2.5259914E0,1.7690955E2,-7.559045E1,-6.9882524E-1,-9.476548E0,-2.861085E-1,3.833321E-1,6.304872E0,2.4737638E-1,8.203771E1,-3.626409E1,8.640003E-1,-1.2445565E1,9.999856E1,-1.3158435E1,-2.0240902E1,4.545831E-1,-1.1325025E1,-8.7184204E1,-4.4966167E1,-1.1554732E2,4.0864326E1,-6.7971825E1,-8.7279106E1,1.8818372E-1,-5.453993E-1,2.903429E1,2.1435558E2,5.785042E1,-3.3147388E0,5.3333536E-2,-1.032207E1,-5.794961E1,-1.4745787E0,2.4284063E1,-1.2779358E1,4.3760952E1,-1.0777948E1,-5.461316E1,4.0409554E1,1.65636E2,-7.4456036E-2,-6.3291645E1,-5.4944897E1,-3.7105614E-1,-3.8250244E0,9.88597E1,9.505374E0,-1.451349E-1,-7.301255E-1,-1.196514E0,5.9762928E1,7.84432E0,-4.1875645E1,-1.1840857E2,5.541946E1,-8.800422E0,-1.1118086E2,-3.301598E1,-2.8387836E1,-1.180876E2,3.931836E0,-6.809499E1],"split_indices":[2,4,6,0,0,1,0,2,11,0,0,1,19,7,8,5,0,0,21,11,0,11,0,12,1,10,2,0,0,13,0,18,20,1,7,0,0,8,0,0,0,0,1,0,0,0,0,0,0,0,16,7,0,0,0,2,2,0,0,1,0,0,0,0,0,0,0,19,0,0,18,0,0,0,5,6,2,0,0,0,0,0,0,0,0,0,0,0,0],"split_type":[0,0,0,0,0,0,0,0,0,0,0,0,0,0,0,0,0,0,0,0,0,0,0,0,0,0,0,0,0,0,0,0,0,0,0,0,0,0,0,0,0,0,0,0,0,0,0,0,0,0,0,0,0,0,0,0,0,0,0,0,0,0,0,0,0,0,0,0,0,0,0,0,0,0,0,0,0,0,0,0,0,0,0,0,0,0,0,0,0],"sum_hessian":[2.38E2,7E0,2.31E2,4E0,3E0,2.25E2,6E0,1.63E2,6.2E1,4E0,2E0,5E1,1.13E2,5.4E1,8E0,3.8E1,1.2E1,2E0,1.11E2,3E1,2.4E1,5E0,3E0,3.5E1,3E0,7E0,5E0,1E0,1E0,1.09E2,2E0,1.2E1,1.8E1,8E0,1.6E1,3E0,2E0,3.3E1,2E0,2E0,1E0,2E0,5E0,1E0,4E0,2E0,1.07E2,1E0,1E0,4E0,8E0,1.7E1,1E0,6E0,2E0,7E0,9E0,1E0,1E0,3.2E1,1E0,1E0,1E0,1E0,1E0,1E0,4E0,6E0,2E0,4E0,1.3E1,1E0,6E0,2E0,7E0,2.5E1,7E0,4E0,2E0,2E0,1.1E1,1E0,1E0,5E0,2E0,1E0,2.4E1,3E0,4E0],"tree_param":{"num_deleted":"0","num_feature":"22","num_nodes":"89","size_leaf_vector":"1"}},{"base_weights":[3.204063E2,4.210839E4,-8.896611E2,-1.1940993E2,3.0192334E3,9.734123E3,-1.1091117E3,7.544624E2,7.734538E2,-1.8024762E3,1.2306731E3,1.1432163E2,-5.773695E1,-1.8886904E3,2.0143422E2,6.1604873E3,1.322205E2,-4.8217746E2,-2.0306816E3,3.7763437E2,5.933907E2,-1.554428E3,1.4894281E3,1.8190552E3,-1.0636943E3,1.3171483E3,-2.07984E3,6.0810253E1,-4.33169E1,6.2098988E1,-1.914154E3,-2.66426E2,2.6034885E3,1.0392765E2,2.6014038E1,-1.4090605E3,2.3832776E2,1.7248682E2,-7.370069E1,-2.1157158E3,-5.230207E2,-2.1102834E3,4.040437E1,-1.5214725E3,1.1551369E2,3.0844033E3,-2.5430489E1,-1.737201E1,-1.8710264E3,-1.25561E1,4.2666927E1,-5.3076886E2,-2.1325254E3,-8.534302E1,1.0530845E2,-4.0277953E0,-1.1124703E2,8.421607E0,-8.9347466E1,1.3515903E3,1.9484502E2,2.096762E1,-3.0273096E2,-1.02484764E2,-1.1041901E1,-5.8993435E1,1.9185766E1,-1.2583142E1,-2.142969E3,7.5860275E1,1.30878725E1,-3.127655E0,-1.9577168E1,-1.945194E1,-1.07588745E2],"categories":[],"categories_nodes":[],"categories_segments":[],"categories_sizes":[],"default_left":[0,0,0,0,0,0,0,0,0,0,0,0,0,0,0,0,0,0,0,0,0,0,0,0,0,0,0,0,0,0,0,0,0,0,0,0,0,0,0,0,0,0,0,0,0,0,0,0,0,0,0,0,0,0,0,0,0,0,0,0,0,0,0,0,0,0,0,0,0,0,0,0,0,0,0],"id":3,"left_children":[1,3,5,-1,-1,7,9,11,-1,13,15,-1,-1,17,-1,19,21,23,25,27,-1,29,31,33,35,37,39,-1,-1,-1,41,43,45,-1,-1,47,49,-1,-1,51,53,55,-1,57,-1,59,-1,61,63,-1,-1,65,67,-1,-1,-1,-1,-1,-1,69,-1,-1,71,-1,-1,-1,-1,-1,73,-1,-1,-1,-1,-1,-1],"loss_changes":[1.2577898E10,5.836835E9,5.7499424E8,0E0,0E0,2.4581885E8,3.883313E8,1.1414752E7,0E0,1.0011117E8,2.9701968E8,0E0,0E0,3.536851E7,0E0,3.2556458E8,1.0761529E8,2.6022618E7,2.9894016E7,7.312597E6,0E0,2.35021E7,5.155295E7,2.66686E5,7.080934E6,2.2942156E7,7.997376E6,0E0,0E0,0E0,1.1849608E7,3.9087676E7,2.5515224E7,0E0,0E0,7.68245E6,1.4183595E6,0E0,0E0,3.104256E6,1.915763E7,4.009776E6,0E0,3.890022E6,0E0,1.4443664E7,0E0,6.254439E5,2.200884E6,0E0,0E0,2.2335082E6,2.544576E6,0E0,0E0,0E0,0E0,0E0,0E0,6.85817E5,0E0,0E0,3.9500062E4,0E0,0E0,0E0,0E0,0E0,1.572288E6,0E0,0E0,0E0,0E0,0E0,0E0],"parents":[2147483647,0,0,1,1,2,2,5,5,6,6,7,7,9,9,10,10,13,13,15,15,16,16,17,17,18,18,19,19,21,21,22,22,23,23,24,24,25,25,26,26,30,30,31,31,32,32,35,35,36,36,39,39,40,40,41,41,43,43,45,45,47,47,48,48,51,51,52,52,59,59,62,62,68,68],"right_children":[2,4,6,-1,-1,8,10,12,-1,14,16,-1,-1,18,-1,20,22,24,26,28,-1,30,32,34,36,38,40,-1,-1,-1,42,44,46,-1,-1,48,50,-1,-1,52,54,56,-1,58,-1,60,-1,62,64,-1,-1,66,68,-1,-1,-1,-1,-1,-1,70,-1,-1,72,-1,-1,-1,-1,-1,74,-1,-1,-1,-1,-1,-1],"split_conditions":[-1.0897419E1,7.6365924E0,-5.9499383E0,-1.1940993E2,3.0192334E3,2.6096538E-1,2.6357849E0,-5.4649498E1,7.734538E2,8.1197196E-1,-1.4040184E0,1.1432163E2,-5.773695E1,-2.367296E0,2.0143422E2,3.7328175E-1,1.18576564E-1,-3.8726667E-1,-7.4195313E-1,4.055708E0,5.933907E2,-5.9284216E-1,-1.3830052E-1,-4.4720554E-1,1.5612768E-1,-7.642927E0,7.8861517E-1,6.0810253E1,-4.33169E1,6.2098988E1,1.0409617E1,1.673061E-1,3.4608972E-1,1.0392765E2,2.6014038E1,-1.4738297E-1,-1.2445565E1,1.7248682E2,-7.370069E1,-9.2039526E-1,3.2619991E0,-2.6952415E1,4.040437E1,-1.877658E1,1.1551369E2,-2.299747E-1,-2.5430489E1,-2.7037768E0,-1.6031975E0,-1.25561E1,4.2666927E1,-2.889438E1,-1.8005637E0,-8.534302E1,1.0530845E2,-4.0277953E0,-1.1124703E2,8.421607E0,-8.9347466E1,1.4990401E1,1.9484502E2,2.096762E1,-1.8109943E1,-1.02484764E2,-1.1041901E1,-5.8993435E1,1.9185766E1,-1.2583142E1,-8.597441E-1,7.5860275E1,1.30878725E1,-3.127655E0,-1.9577168E1,-1.945194E1,-1.07588745E2],"split_indices":[2,1,2,0,0,4,1,0,0,6,2,0,0,2,0,6,5,14,19,1,0,8,7,0,7,0,10,0,0,0,1,11,15,0,0,14,0,0,0,16,0,0,0,0,0,18,0,1,1,0,0,0,4,0,0,0,0,0,0,0,0,0,0,0,0,0,0,0,11,0,0,0,0,0,0],"split_type":[0,0,0,0,0,0,0,0,0,0,0,0,0,0,0,0,0,0,0,0,0,0,0,0,0,0,0,0,0,0,0,0,0,0,0,0,0,0,0,0,0,0,0,0,0,0,0,0,0,0,0,0,0,0,0,0,0,0,0,0,0,0,0,0,0,0,0,0,0,0,0,0,0,0,0],"sum_hessian":[2.47E2,6E0,2.41E2,2E0,4E0,4E0,2.37E2,2E0,2E0,1.83E2,5.4E1,1E0,1E0,1.81E2,2E0,9E0,4.5E1,1.7E1,1.64E2,5E0,4E0,2E1,2.5E1,3E0,1.4E1,2E0,1.62E2,3E0,2E0,2E0,1.8E1,1E1,1.5E1,2E0,1E0,1.1E1,3E0,1E0,1E0,1.58E2,4E0,1.7E1,1E0,7E0,3E0,1.3E1,2E0,3E0,8E0,2E0,1E0,2E0,1.56E2,3E0,1E0,1E0,1.6E1,1E0,6E0,5E0,8E0,1E0,2E0,7E0,1E0,1E0,1E0,1E0,1.55E2,4E0,1E0,1E0,1E0,1E0,1.54E2],"tree_param":{"num_deleted":"0","num_feature":"22","num_nodes":"75","size_leaf_vector":"1"}},{"base_weights":[7.2130444E2,4.8845633E4,-7.9130707E2,-1.1696578E2,5.6491957E4,-1.7624867E3,9.485273E2,7.931142E2,3.030993E3,-3.5862317E2,-1.943968E3,-1.4928423E3,2.6180457E3,1.9464158E3,-1.2567305E3,-1.977088E3,7.06331E1,1.4191527E3,-2.08319E3,7.7129463E3,1.1690265E3,1.2108071E2,3.3200626E1,3.2490417E2,-1.6792146E3,1.8706121E1,-1.9961464E3,1.7287044E2,-9.738915E2,5.733838E0,-2.157788E3,9.1523955E3,3.437999E2,-1.4017365E2,3.9844675E3,-6.073222E0,4.160025E1,1.1063281E2,-1.0241237E2,-2.081403E2,-2.020032E3,-6.1426327E1,-5.249658E0,-3.1231089E1,-1.1209926E2,1.0032383E4,3.0812733E1,-2.6728724E1,5.2513714E1,-1.2867965E3,1.1686772E3,9.006674E2,5.5976157E3,-1.2145972E1,2.0443434E1,-5.769955E1,4.2089027E1,-2.052264E3,-7.3286865E2,1.3143565E2,5.314626E2,6.2156216E1,-1.7069943E3,1.774831E3,-9.4195374E2,1.9673586E3,-4.10905E1,6.902881E3,1.12015724E2,-2.9893421E1,-1.029281E2,1.7044031E1,-5.4326305E1,-1.11371826E2,-1.9439076E3,1.0179914E2,-2.7445953E1,-5.6858517E1,-8.907605E0,1.1349184E2,2.6498114E1,1.02675735E2,3.7310254E2,-2.1113562E1,1.2760675E1,8.211066E0,-1.06663506E2],"categories":[],"categories_nodes":[],"categories_segments":[],"categories_sizes":[],"default_left":[0,0,0,0,0,0,0,0,0,0,0,0,0,0,0,0,0,0,0,0,0,0,0,0,0,0,0,0,0,0,0,0,0,0,0,0,0,0,0,0,0,0,0,0,0,0,0,0,0,0,0,0,0,0,0,0,0,0,0,0,0,0,0,0,0,0,0,0,0,0,0,0,0,0,0,0,0,0,0,0,0,0,0,0,0,0,0],"id":4,"left_children":[1,3,5,-1,7,9,11,-1,-1,13,15,17,19,21,23,25,-1,27,29,31,33,-1,-1,35,37,-1,39,-1,41,-1,43,45,47,49,51,-1,-1,53,-1,55,57,-1,-1,-1,-1,59,-1,-1,-1,61,63,65,67,-1,-1,-1,-1,69,71,-1,-1,-1,73,75,77,79,-1,81,-1,-1,-1,-1,-1,83,85,-1,-1,-1,-1,-1,-1,-1,-1,-1,-1,-1,-1],"loss_changes":[1.9110527E10,3.2631665E9,4.325431E8,0E0,2.12437E8,4.108595E7,3.7889222E8,0E0,0E0,4.384957E7,1.8912832E7,6.828175E7,3.970268E8,2.048394E6,1.0568818E7,7.199488E6,0E0,3.75106E7,5.494064E6,1.2414355E8,1.6274146E8,0E0,0E0,1.0064746E6,8.152752E6,0E0,5.686784E6,0E0,7.56021E5,0E0,2.601344E6,6.893453E7,2.423097E6,4.8027356E7,6.4603184E7,0E0,0E0,4.1564803E5,0E0,3.9506118E6,4.345792E6,0E0,0E0,0E0,0E0,1.1829952E7,0E0,0E0,0E0,2.0194142E7,2.0862316E7,1.2640904E7,2.397488E7,0E0,0E0,0E0,0E0,2.4064E4,2.2690725E6,0E0,0E0,0E0,5.453868E6,8.399808E6,3.9383775E5,5.36196E5,0E0,9.46304E5,0E0,0E0,0E0,0E0,0E0,4.496828E5,5.539936E6,0E0,0E0,0E0,0E0,0E0,0E0,0E0,0E0,0E0,0E0,0E0,0E0],"parents":[2147483647,0,0,1,1,2,2,4,4,5,5,6,6,9,9,10,10,11,11,12,12,13,13,14,14,15,15,17,17,18,18,19,19,20,20,23,23,24,24,26,26,28,28,30,30,31,31,32,32,33,33,34,34,37,37,39,39,40,40,45,45,49,49,50,50,51,51,52,52,57,57,58,58,62,62,63,63,64,64,65,65,67,67,73,73,74,74],"right_children":[2,4,6,-1,8,10,12,-1,-1,14,16,18,20,22,24,26,-1,28,30,32,34,-1,-1,36,38,-1,40,-1,42,-1,44,46,48,50,52,-1,-1,54,-1,56,58,-1,-1,-1,-1,60,-1,-1,-1,62,64,66,68,-1,-1,-1,-1,70,72,-1,-1,-1,74,76,78,80,-1,82,-1,-1,-1,-1,-1,84,86,-1,-1,-1,-1,-1,-1,-1,-1,-1,-1,-1,-1],"split_conditions":[-9.142882E0,-1.3452263E1,1.5965775E0,-1.1696578E2,6.8163967E0,-2.367296E0,-1.0469255E-2,7.931142E2,3.030993E3,-4.6986973E-1,9.8611265E-1,-5.330324E-1,-1.4040184E0,-1.6426902E-1,-3.0515352E-1,-9.2039526E-1,7.06331E1,-7.642927E0,-1.0595273E0,5.690255E-1,2.9533522E-2,1.2108071E2,3.3200626E1,-1.8109943E1,-3.978267E-1,1.8706121E1,-9.154871E-1,1.7287044E2,9.247956E0,5.733838E0,-2.5259914E0,1.5612768E-1,9.392204E0,4.876512E-1,-1.5432298E-1,-6.073222E0,4.160025E1,-1.2445565E1,-1.0241237E2,-2.5893126E1,6.878204E-1,-6.1426327E1,-5.249658E0,-3.1231089E1,-1.1209926E2,1.6608176E-1,3.0812733E1,-2.6728724E1,5.2513714E1,-4.1750565E-1,-9.900092E-2,1.3502498E1,3.723662E-1,-1.2145972E1,2.0443434E1,-5.769955E1,4.2089027E1,-1.0386807E0,-2.7037768E0,1.3143565E2,5.314626E2,6.2156216E1,-4.474025E-1,9.323631E-1,3.2949162E0,1.2602224E1,-4.10905E1,2.186958E0,1.12015724E2,-2.9893421E1,-1.029281E2,1.7044031E1,-5.4326305E1,-1.781828E1,-1.877658E1,1.0179914E2,-2.7445953E1,-5.6858517E1,-8.907605E0,1.1349184E2,2.6498114E1,1.02675735E2,3.7310254E2,-2.1113562E1,1.2760675E1,8.211066E0,-1.06663506E2],"split_indices":[2,2,1,0,1,2,5,0,0,14,6,20,2,7,20,16,0,0,15,9,11,0,0,0,11,0,9,0,0,0,2,7,0,5,7,0,0,0,0,0,17,0,0,0,0,5,0,0,0,19,11,0,7,0,0,0,0,6,1,0,0,0,17,4,1,0,0,1,0,0,0,0,0,0,0,0,0,0,0,0,0,0,0,0,0,0,0],"split_type":[0,0,0,0,0,0,0,0,0,0,0,0,0,0,0,0,0,0,0,0,0,0,0,0,0,0,0,0,0,0,0,0,0,0,0,0,0,0,0,0,0,0,0,0,0,0,0,0,0,0,0,0,0,0,0,0,0,0,0,0,0,0,0,0,0,0,0,0,0,0,0,0,0,0,0,0,0,0,0,0,0,0,0,0,0,0,0],"sum_hessian":[2.61E2,7E0,2.54E2,1E0,6E0,1.63E2,9.1E1,1E0,5E0,1.9E1,1.44E2,3.7E1,5.4E1,5E0,1.4E1,1.43E2,1E0,6E0,3.1E1,1.1E1,4.3E1,3E0,2E0,3E0,1.1E1,1E0,1.42E2,3E0,3E0,1E0,3E1,9E0,2E0,3E1,1.3E1,2E0,1E0,2E0,9E0,2E0,1.4E2,2E0,1E0,2E0,2.8E1,8E0,1E0,1E0,1E0,1.6E1,1.4E1,5E0,8E0,1E0,1E0,1E0,1E0,1.36E2,4E0,1E0,7E0,2E0,1.4E1,1.1E1,3E0,3E0,2E0,5E0,3E0,1E0,1.35E2,1E0,3E0,2E0,1.2E1,1E1,1E0,2E0,1E0,2E0,1E0,1E0,4E0,1E0,1E0,1E0,1.1E1],"tree_param":{"num_deleted":"0","num_feature":"22","num_nodes":"87","size_leaf_vector":"1"}},{"base_weights":[-1.4526266E2,4.0784594E4,-1.0267455E3,2.642153E3,-1.8623201E2,3.8100786E3,-1.2390392E3,3.7323828E2,7.1722715E3,-1.6978358E3,8.3898096E2,1.3159895E3,-5.040881E1,1.3394864E2,4.637407E2,-1.777818E3,1.8468483E2,2.3167495E3,-8.2851355E2,7.4444405E1,1.9932348E1,1.6385289E2,-1.8241064E3,7.571823E2,3.8074822E3,9.817773E1,-1.6492528E3,2.5226813E2,-1.9095798E3,-7.341957E2,1.9273374E3,1.2022838E3,2.88905E2,-1.8950491E3,5.09423E1,-7.62427E1,1.20530174E2,3.1452234E1,-1.94295E3,4.1901538E2,-7.0777756E1,1.0351355E2,2.6743378E1,9.152672E1,-4.8474224E1,-3.1563684E1,-1.0204583E2,-1.9668658E3,-1.1016552E3,5.590491E0,2.5835663E1,-2.7320215E1,-1.9721954E3,1.533269E2,-1.6343134E3,-1.0055511E2,-7.433072E1,1.6617933E1,-5.1184144E0,-8.999189E1,-2.430539E1],"categories":[],"categories_nodes":[],"categories_segments":[],"categories_sizes":[],"default_left":[0,0,0,0,0,0,0,0,0,0,0,0,0,0,0,0,0,0,0,0,0,0,0,0,0,0,0,0,0,0,0,0,0,0,0,0,0,0,0,0,0,0,0,0,0,0,0,0,0,0,0,0,0,0,0,0,0,0,0,0,0],"id":5,"left_children":[1,3,5,-1,-1,7,9,11,13,15,17,19,-1,-1,-1,21,-1,23,25,-1,-1,-1,27,29,31,-1,33,35,37,39,41,43,-1,45,-1,-1,-1,-1,47,49,-1,-1,-1,-1,-1,-1,-1,51,53,-1,-1,-1,55,57,59,-1,-1,-1,-1,-1,-1],"loss_changes":[8.5565107E9,2.880388E9,2.4294477E8,0E0,0E0,1.1287622E8,2.1403011E8,9.140731E6,2.238976E7,8.548112E7,1.0295048E8,4.08885E4,0E0,0E0,0E0,4.832851E7,0E0,4.82648E7,4.906959E7,0E0,0E0,0E0,3.24272E7,2.2356766E7,4.952544E7,0E0,1.2423704E7,3.4360824E7,1.587776E7,5.307646E6,2.85896E5,9.961163E6,0E0,1.47678E6,0E0,0E0,0E0,0E0,1.273728E6,3.2266375E4,0E0,0E0,0E0,0E0,0E0,0E0,0E0,1.7152E5,4.929919E6,0E0,0E0,0E0,1.08672E5,1.7135566E5,7.5366E4,0E0,0E0,0E0,0E0,0E0,0E0],"parents":[2147483647,0,0,1,1,2,2,5,5,6,6,7,7,8,8,9,9,10,10,11,11,15,15,17,17,18,18,22,22,23,23,24,24,26,26,27,27,28,28,29,29,30,30,31,31,33,33,38,38,39,39,47,47,48,48,52,52,53,53,54,54],"right_children":[2,4,6,-1,-1,8,10,12,14,16,18,20,-1,-1,-1,22,-1,24,26,-1,-1,-1,28,30,32,-1,34,36,38,40,42,44,-1,46,-1,-1,-1,-1,48,50,-1,-1,-1,-1,-1,-1,-1,52,54,-1,-1,-1,56,58,60,-1,-1,-1,-1,-1,-1],"split_conditions":[-9.142882E0,1.00547E0,-4.5380106E0,2.642153E3,-1.8623201E2,-2.9397708E-1,3.6219149E0,-5.1483307E0,-3.394955E1,9.8611265E-1,1.1785905E0,1.3761204E0,-5.040881E1,1.3394864E2,4.637407E2,-7.4195313E-1,1.8468483E2,3.631516E-4,-1.8068184E0,7.4444405E1,1.9932348E1,1.6385289E2,-6.1794037E-1,1.0976534E-1,-1.1260464E-1,9.817773E1,7.357183E-1,-6.761747E-1,-8.3051133E-1,4.881802E0,7.3168173E0,2.0987856E1,2.88905E2,-4.459325E-1,5.09423E1,-7.62427E1,1.20530174E2,3.1452234E1,6.6124016E-1,8.453178E0,-7.0777756E1,1.0351355E2,2.6743378E1,9.152672E1,-4.8474224E1,-3.1563684E1,-1.0204583E2,-8.749764E-1,-5.2313435E-1,5.590491E0,2.5835663E1,-2.7320215E1,4.9568895E-1,-7.25347E0,1.0061817E1,-1.0055511E2,-7.433072E1,1.6617933E1,-5.1184144E0,-8.999189E1,-2.430539E1],"split_indices":[2,4,2,0,0,7,1,2,0,6,2,3,0,0,0,19,0,15,3,0,0,0,18,2,17,0,5,18,17,1,1,0,0,17,0,0,0,0,17,0,0,0,0,0,0,0,0,12,2,0,0,0,15,0,0,0,0,0,0,0,0],"split_type":[0,0,0,0,0,0,0,0,0,0,0,0,0,0,0,0,0,0,0,0,0,0,0,0,0,0,0,0,0,0,0,0,0,0,0,0,0,0,0,0,0,0,0,0,0,0,0,0,0,0,0,0,0,0,0,0,0,0,0,0,0],"sum_hessian":[2.35E2,4E0,2.31E2,3E0,1E0,9E0,2.22E2,5E0,4E0,1.82E2,4E1,3E0,2E0,2E0,2E0,1.8E2,2E0,2.1E1,1.9E1,2E0,1E0,1E0,1.79E2,1.1E1,1E1,4E0,1.5E1,7E0,1.72E2,5E0,6E0,5E0,5E0,1.4E1,1E0,4E0,3E0,2E0,1.7E2,2E0,3E0,5E0,1E0,4E0,1E0,2E0,1.2E1,1.64E2,6E0,1E0,1E0,1E0,1.63E2,2E0,4E0,1.48E2,1.5E1,1E0,1E0,3E0,1E0],"tree_param":{"num_deleted":"0","num_feature":"22","num_nodes":"61","size_leaf_vector":"1"}},{"base_weights":[-2.0196848E2,2.6020555E4,-8.851562E2,-1.05323E2,2.0305338E3,-1.5478552E3,1.01828864E3,-1.6048527E3,2.0354283E2,-1.775087E3,2.4593538E3,9.043242E1,-1.6357529E3,1.03793106E2,-1.0357139E2,1.4346803E3,4.6725656E2,-1.6823125E3,2.2786288E2,-1.5405874E3,2.3397778E3,-1.7959635E3,-8.1746924E2,-1.312737E3,1.5975658E2,-6.5868225E0,-1.7002267E3,6.925382E2,3.5319238E3,-7.024685E2,-1.8631619E3,-1.6405712E3,7.251427E2,-7.990835E1,-1.1411194E1,-2.429106E1,-9.021551E1,1.8950406E3,-6.088982E2,7.4986646E2,4.396787E3,5.4096252E1,-8.108846E1,1.7452168E1,-1.8821342E3,-1.8533953E3,2.8153578E1,1.8565029E3,-3.2497403E2,1.23470085E2,3.060923E2,-5.2075306E1,4.966874E1,5.951E1,-2.5286682E1,9.927398E1,3.238591E2,-1.9280732E3,-1.0247555E3,-2.7306335E1,-9.584119E1,1.0602758E2,2.6608917E1,-5.3594257E1,5.302618E2,3.0429981E1,-7.473059E0,-1.0296083E2,-7.696859E1,-1.9263218E1,-7.296478E1,-2.7317016E0,4.250134E1],"categories":[],"categories_nodes":[],"categories_segments":[],"categories_sizes":[],"default_left":[0,0,0,0,0,0,0,0,0,0,0,0,0,0,0,0,0,0,0,0,0,0,0,0,0,0,0,0,0,0,0,0,0,0,0,0,0,0,0,0,0,0,0,0,0,0,0,0,0,0,0,0,0,0,0,0,0,0,0,0,0,0,0,0,0,0,0,0,0,0,0,0,0],"id":6,"left_children":[1,3,5,-1,-1,7,9,11,-1,13,15,-1,17,-1,-1,19,-1,21,23,25,27,29,31,33,-1,-1,35,37,39,41,43,45,47,-1,-1,-1,-1,49,51,53,55,-1,-1,-1,57,59,-1,61,63,-1,65,-1,-1,-1,-1,-1,-1,67,69,-1,-1,-1,-1,-1,71,-1,-1,-1,-1,-1,-1,-1,-1],"loss_changes":[4.233035E9,2.547804E9,2.9170064E8,0E0,0E0,6.129629E7,2.4589173E8,2.0889824E7,0E0,2.8265036E7,2.6881965E8,0E0,1.5047296E7,0E0,0E0,1.0054928E8,0E0,1.4749792E7,2.7051234E7,1.80019E6,5.2539024E7,9.345952E6,2.7853912E7,8.734695E5,0E0,0E0,1.34624E5,2.1498634E7,3.520061E7,1.8158576E7,6.364896E6,7.609432E6,1.0107798E7,0E0,0E0,0E0,0E0,5.632542E6,5.886698E6,3.3663375E6,4.7337344E7,0E0,0E0,0E0,3.34144E6,3.1108E4,0E0,2.70233E5,3.7623055E6,0E0,5.0438684E5,0E0,0E0,0E0,0E0,0E0,0E0,3.304032E6,1.938745E6,0E0,0E0,0E0,0E0,0E0,6.075279E5,0E0,0E0,0E0,0E0,0E0,0E0,0E0,0E0],"parents":[2147483647,0,0,1,1,2,2,5,5,6,6,7,7,9,9,10,10,12,12,15,15,17,17,18,18,19,19,20,20,21,21,22,22,23,23,26,26,27,27,28,28,29,29,30,30,31,31,32,32,37,37,38,38,39,39,40,40,44,44,45,45,47,47,48,48,50,50,57,57,58,58,64,64],"right_children":[2,4,6,-1,-1,8,10,12,-1,14,16,-1,18,-1,-1,20,-1,22,24,26,28,30,32,34,-1,-1,36,38,40,42,44,46,48,-1,-1,-1,-1,50,52,54,56,-1,-1,-1,58,60,-1,62,64,-1,66,-1,-1,-1,-1,-1,-1,68,70,-1,-1,-1,-1,-1,72,-1,-1,-1,-1,-1,-1,-1,-1],"split_conditions":[-9.142882E0,-1.3452263E1,2.5500503E0,-1.05323E2,2.0305338E3,9.8611265E-1,-7.9250254E-2,-8.924173E-1,2.0354283E2,-5.9499383E0,8.274649E-1,9.043242E1,6.144266E-1,1.03793106E2,-1.0357139E2,-4.4427007E-1,4.6725656E2,4.228612E-1,-8.895706E0,-2.6952415E1,-3.0808272E-3,-3.3147388E0,1.5427488E-1,-2.7693409E1,1.5975658E2,-6.5868225E0,-2.8812923E0,1.2886031E0,-1.3570516E-1,-3.8726667E-1,-9.2039526E-1,8.640003E-1,2.2358404E-1,-7.990835E1,-1.1411194E1,-2.429106E1,-9.021551E1,5.3716198E-2,6.7446315E-1,1.3502498E1,-1.3084204E-1,5.4096252E1,-8.108846E1,1.7452168E1,7.667964E-1,-8.817485E-1,2.8153578E1,1.0660211E1,-2.0538568E0,1.23470085E2,-4.4720554E-1,-5.2075306E1,4.966874E1,5.951E1,-2.5286682E1,9.927398E1,3.238591E2,2.9213098E-1,-1.9634321E-1,-2.7306335E1,-9.584119E1,1.0602758E2,2.6608917E1,-5.3594257E1,-2.0240902E1,3.0429981E1,-7.473059E0,-1.0296083E2,-7.696859E1,-1.9263218E1,-7.296478E1,-2.7317016E0,4.250134E1],"split_indices":[2,2,1,0,0,6,5,12,0,2,6,0,10,0,0,7,0,21,0,0,11,2,5,0,0,0,2,2,12,14,16,8,9,0,0,0,0,10,5,0,10,0,0,0,5,7,0,0,1,0,0,0,0,0,0,0,0,7,11,0,0,0,0,0,0,0,0,0,0,0,0,0,0],"split_type":[0,0,0,0,0,0,0,0,0,0,0,0,0,0,0,0,0,0,0,0,0,0,0,0,0,0,0,0,0,0,0,0,0,0,0,0,0,0,0,0,0,0,0,0,0,0,0,0,0,0,0,0,0,0,0,0,0,0,0,0,0,0,0,0,0,0,0,0,0,0,0,0,0],"sum_hessian":[2.34E2,5E0,2.29E2,2E0,3E0,1.7E2,5.9E1,1.69E2,1E0,2E1,3.9E1,1E0,1.68E2,1E0,1.9E1,3.5E1,4E0,1.64E2,4E0,8E0,2.7E1,1.44E2,2E1,3E0,1E0,1E0,7E0,1.2E1,1.5E1,9E0,1.35E2,1.3E1,7E0,2E0,1E0,1E0,6E0,6E0,6E0,4E0,1.1E1,3E0,6E0,1E0,1.34E2,1.2E1,1E0,3E0,4E0,4E0,2E0,5E0,1E0,3E0,1E0,6E0,5E0,1.26E2,8E0,1E0,1.1E1,2E0,1E0,2E0,2E0,1E0,1E0,9.1E1,3.5E1,4E0,4E0,1E0,1E0],"tree_param":{"num_deleted":"0","num_feature":"22","num_nodes":"73","size_leaf_vector":"1"}},{"base_weights":[-1.3675368E2,2.9411506E4,-7.4922064E2,-2.3233955E2,1.9543889E3,-1.3847058E3,2.3844805E3,-1.5103176E3,3.7045538E2,7.767444E3,3.9747803E2,-1.7019128E3,-8.1681586E2,9.511252E3,-5.312801E1,-1.4833068E3,1.3637235E3,-8.563525E2,-1.7797958E3,-1.5104678E3,5.3483264E2,1.09933815E2,5.643231E2,-3.14505E1,2.74659E1,2.9669233E1,-8.751572E1,-1.0831697E3,2.003179E3,-1.4397086E3,9.784874E1,-4.808064E2,-1.7950272E3,-1.6031093E3,2.9403364E1,1.9154295E2,-2.0966104E2,-1.6611267E1,-7.365287E1,-3.845351E1,2.2245112E3,-1.693421E3,4.012101E1,-5.3076344E1,1.7015863E1,-1.8043796E3,-1.26099615E1,-5.359225E2,-1.7524222E3,7.6175896E1,-1.0552843E3,2.9037329E1,2.417853E3,-3.603798E1,-9.079387E1,-1.8605981E3,-1.3262228E3,9.135856E1,-4.9228138E1,-2.700929E1,-1.8343478E3,-8.7907555E1,4.3855347E2,3.506297E1,2.4959556E3,-5.9623016E2,-1.8768376E3,-1.4523191E3,2.0435389E1,-6.6999025E0,1.3551795E1,-1.8728749E3,-2.4668829E1,5.0645634E1,-3.2113106E1,1.4438963E2,7.78757E1,-5.275727E1,8.040009E0,-2.7146662E1,-9.417704E1,-1.1125916E1,-7.576372E1,-1.0139926E2,-5.606249E1],"categories":[],"categories_nodes":[],"categories_segments":[],"categories_sizes":[],"default_left":[0,0,0,0,0,0,0,0,0,0,0,0,0,0,0,0,0,0,0,0,0,0,0,0,0,0,0,0,0,0,0,0,0,0,0,0,0,0,0,0,0,0,0,0,0,0,0,0,0,0,0,0,0,0,0,0,0,0,0,0,0,0,0,0,0,0,0,0,0,0,0,0,0,0,0,0,0,0,0,0,0,0,0,0,0],"id":7,"left_children":[1,3,5,-1,-1,7,9,11,-1,13,15,17,19,21,23,25,27,29,31,33,35,-1,-1,-1,-1,-1,-1,37,39,41,-1,43,45,47,-1,-1,49,-1,-1,-1,51,53,-1,-1,-1,55,-1,57,59,-1,61,-1,63,-1,-1,65,67,69,-1,-1,71,-1,73,-1,75,77,79,81,-1,-1,-1,83,-1,-1,-1,-1,-1,-1,-1,-1,-1,-1,-1,-1,-1],"loss_changes":[4.455882E9,1.8294195E9,4.8323424E8,0E0,0E0,2.3321594E8,4.3544704E8,2.5051328E7,0E0,1.505186E8,5.835911E7,8.683296E6,4.2998664E7,9.201696E7,1.38634E6,7.138026E6,3.502804E7,2.7435046E7,1.926752E6,6.77508E6,4.0065108E7,0E0,0E0,0E0,0E0,0E0,0E0,9.745325E5,1.2141816E7,8.753962E6,0E0,1.7917859E6,1.55056E6,3.681832E6,0E0,0E0,2.2126374E7,0E0,0E0,0E0,3.680768E6,1.20492E5,0E0,0E0,0E0,1.242048E6,0E0,1.4970658E6,1.491936E6,0E0,1.1270732E7,0E0,1.26672E5,0E0,0E0,1.365408E6,4.531406E6,1.577927E5,0E0,0E0,2.64232E5,0E0,3.133661E6,0E0,2.82528E5,1.2119059E6,4.144E4,9.79004E5,0E0,0E0,0E0,2.90992E5,0E0,0E0,0E0,0E0,0E0,0E0,0E0,0E0,0E0,0E0,0E0,0E0,0E0],"parents":[2147483647,0,0,1,1,2,2,5,5,6,6,7,7,9,9,10,10,11,11,12,12,13,13,14,14,15,15,16,16,17,17,18,18,19,19,20,20,27,27,28,28,29,29,31,31,32,32,33,33,36,36,40,40,41,41,45,45,47,47,48,48,50,50,52,52,55,55,56,56,57,57,60,60,62,62,64,64,65,65,66,66,67,67,71,71],"right_children":[2,4,6,-1,-1,8,10,12,-1,14,16,18,20,22,24,26,28,30,32,34,36,-1,-1,-1,-1,-1,-1,38,40,42,-1,44,46,48,-1,-1,50,-1,-1,-1,52,54,-1,-1,-1,56,-1,58,60,-1,62,-1,64,-1,-1,66,68,70,-1,-1,72,-1,74,-1,76,78,80,82,-1,-1,-1,84,-1,-1,-1,-1,-1,-1,-1,-1,-1,-1,-1,-1,-1],"split_conditions":[-9.142882E0,-1.2396433E1,4.055708E0,-2.3233955E2,1.9543889E3,9.8611265E-1,-8.2390505E-1,4.740785E-1,3.7045538E2,8.2060486E-1,-8.874552E-1,-5.7370424E-1,1.05790764E-1,6.156628E-1,-5.4649498E1,-9.4162434E-1,-2.994201E-1,3.0465198E-1,-9.2039526E-1,7.217409E-1,-8.797035E-1,1.09933815E2,5.643231E2,-3.14505E1,2.74659E1,2.9669233E1,-8.751572E1,-1.781828E1,4.8314457E0,2.0132704E1,9.784874E1,-2.889438E1,1.007961E0,-4.6489418E-1,2.9403364E1,1.9154295E2,-1.6472043E0,-1.6611267E1,-7.365287E1,-3.845351E1,-8.3431345E-1,-3.2015964E-1,4.012101E1,-5.3076344E1,1.7015863E1,1.0351256E0,-1.26099615E1,-7.25347E0,-5.706865E-1,7.6175896E1,1.0419994E-1,2.9037329E1,-2.9400513E1,-3.603798E1,-9.079387E1,-2.034319E0,3.16851E0,-3.82109E1,-4.9228138E1,-2.700929E1,2.751603E0,-8.7907555E1,1.8315296E1,3.506297E1,-6.585225E-1,-1.861139E0,-9.090453E-1,-2.2209272E0,2.0435389E1,-6.6999025E0,1.3551795E1,4.6566498E-1,-2.4668829E1,5.0645634E1,-3.2113106E1,1.4438963E2,7.78757E1,-5.275727E1,8.040009E0,-2.7146662E1,-9.417704E1,-1.1125916E1,-7.576372E1,-1.0139926E2,-5.606249E1],"split_indices":[2,2,1,0,0,6,2,5,0,4,4,18,9,3,0,6,7,13,16,12,4,0,0,0,0,0,0,0,1,0,0,0,15,19,0,0,2,0,0,0,4,14,0,0,0,4,0,0,12,0,17,0,0,0,0,4,1,0,0,0,1,0,0,0,3,0,13,3,0,0,0,15,0,0,0,0,0,0,0,0,0,0,0,0,0],"split_type":[0,0,0,0,0,0,0,0,0,0,0,0,0,0,0,0,0,0,0,0,0,0,0,0,0,0,0,0,0,0,0,0,0,0,0,0,0,0,0,0,0,0,0,0,0,0,0,0,0,0,0,0,0,0,0,0,0,0,0,0,0,0,0,0,0,0,0,0,0,0,0,0,0,0,0,0,0,0,0,0,0,0,0,0,0],"sum_hessian":[2.44E2,4E0,2.4E2,1E0,3E0,2E2,4E1,1.98E2,2E0,1E1,3E1,1.54E2,4.4E1,8E0,2E0,1E1,2E1,1.4E1,1.4E2,2.9E1,1.5E1,2E0,6E0,1E0,1E0,1E0,9E0,4E0,1.6E1,1.2E1,2E0,2E0,1.38E2,2.8E1,1E0,2E0,1.3E1,2E0,2E0,1E0,1.5E1,1.1E1,1E0,1E0,1E0,1.37E2,1E0,4E0,2.4E1,4E0,9E0,2E0,1.3E1,2E0,9E0,1.2E2,1.7E1,2E0,2E0,2E0,2.2E1,6E0,3E0,1E0,1.2E1,2E0,1.18E2,1.6E1,1E0,1E0,1E0,2.1E1,1E0,2E0,1E0,7E0,5E0,1E0,1E0,1E0,1.17E2,1E0,1.5E1,1.6E1,5E0],"tree_param":{"num_deleted":"0","num_feature":"22","num_nodes":"85","size_leaf_vector":"1"}},{"base_weights":[-1.8932394E2,-7.4443024E2,2.5272408E4,8.644696E3,-8.6523615E2,2.06563E3,8.08084E2,6.076095E2,4.0742767E1,-1.4045316E3,6.9570694E1,9.4684204E1,-3.4077908E1,1.5875269E3,-1.4794514E3,-1.5426196E3,1.3715635E3,9.166162E1,2.1260248E1,3.0929752E1,-1.5140895E3,5.919956E2,-1.9613599E3,5.098502E3,5.918867E2,-1.539525E3,4.9900196E1,-6.262052E1,1.5802401E3,-2.183169E2,-1.6554834E3,-2.8351218E3,4.1077817E2,3.178145E2,2.8109973E2,-1.6061052E3,-5.2668677E2,1.0112319E2,3.056348E1,-4.792203E2,-9.090077E1,-2.417983E2,2.9164148E1,-4.2439404E2,2.1154834E3,-1.6532837E3,-1.0542334E2,9.130078E2,-1.2741284E3,-3.8208702E1,-3.452653E1,2.4069005E2,-1.929102E3,1.2577964E2,7.8639374E2,-1.6739922E3,2.2864319E1,8.811562E1,-5.064677E1,8.052816E1,1.4363501E2,-1.9183687E1,-7.767878E1,-2.542743E0,-4.6746828E-2,-1.3405288E3,8.18604E2,-1.0855741E2,-3.6064686E1,4.703041E1,8.093757E0,-8.449147E1,6.8491945E0,1.3213E1,-2.4403749E0,-1.8079468E1,-7.319994E1,6.840867E1,-5.8607372E1],"categories":[],"categories_nodes":[],"categories_segments":[],"categories_sizes":[],"default_left":[0,0,0,0,0,0,0,0,0,0,0,0,0,0,0,0,0,0,0,0,0,0,0,0,0,0,0,0,0,0,0,0,0,0,0,0,0,0,0,0,0,0,0,0,0,0,0,0,0,0,0,0,0,0,0,0,0,0,0,0,0,0,0,0,0,0,0,0,0,0,0,0,0,0,0,0,0,0,0],"id":8,"left_children":[1,3,5,7,9,-1,11,-1,-1,13,15,-1,-1,17,19,21,23,-1,-1,-1,25,27,29,31,33,35,-1,-1,37,-1,39,41,-1,-1,43,45,47,-1,-1,49,-1,-1,-1,51,53,55,57,59,61,-1,63,65,67,-1,69,71,-1,-1,-1,-1,73,-1,-1,-1,-1,75,77,-1,-1,-1,-1,-1,-1,-1,-1,-1,-1,-1,-1],"loss_changes":[3.312028E9,2.6722578E8,1.9286779E9,7.248706E7,1.1453682E8,0E0,6.142123E6,0E0,0E0,3.4628384E7,1.7843686E8,0E0,0E0,3.62857E5,1.1183392E7,3.5127384E7,1.335552E8,0E0,0E0,0E0,1.0418016E7,1.4738178E7,1.631164E7,2.211289E8,6.987331E7,8.46016E6,0E0,0E0,9.06238E5,0E0,4.864184E6,2.3339818E7,0E0,0E0,5.1369504E7,8.95888E6,1.1924166E7,0E0,0E0,6.072014E5,0E0,0E0,0E0,2.948628E7,3.871344E6,6.228832E6,1.0260072E7,1.915387E6,1.145779E6,0E0,1.5979373E3,2.0287338E7,1.06507E6,0E0,2.32978E5,3.787872E6,0E0,0E0,0E0,0E0,8.2538E4,0E0,0E0,0E0,0E0,1.95852E5,1.9108596E7,0E0,0E0,0E0,0E0,0E0,0E0,0E0,0E0,0E0,0E0,0E0,0E0],"parents":[2147483647,0,0,1,1,2,2,3,3,4,4,6,6,9,9,10,10,13,13,14,14,15,15,16,16,20,20,21,21,22,22,23,23,24,24,25,25,28,28,30,30,31,31,34,34,35,35,36,36,39,39,43,43,44,44,45,45,46,46,47,47,48,48,50,50,51,51,52,52,54,54,55,55,60,60,65,65,66,66],"right_children":[2,4,6,8,10,-1,12,-1,-1,14,16,-1,-1,18,20,22,24,-1,-1,-1,26,28,30,32,34,36,-1,-1,38,-1,40,42,-1,-1,44,46,48,-1,-1,50,-1,-1,-1,52,54,56,58,60,62,-1,64,66,68,-1,70,72,-1,-1,-1,-1,74,-1,-1,-1,-1,76,78,-1,-1,-1,-1,-1,-1,-1,-1,-1,-1,-1,-1],"split_conditions":[1.0409617E1,-9.3612456E-1,-6.3842845E0,-6.8864565E0,1.5965775E0,2.06563E3,-2.182292E0,6.076095E2,4.0742767E1,-5.1483307E0,-1.0469255E-2,9.4684204E1,-3.4077908E1,-4.4720554E-1,-8.3051133E-1,-5.9284216E-1,-1.8952992E0,9.166162E1,2.1260248E1,3.0929752E1,9.5661384E-1,2.3648343E0,-1.2396433E1,-2.3989123E-1,-7.0713633E-1,6.158623E-1,4.9900196E1,-6.262052E1,-1.4395066E1,-2.183169E2,-2.5259914E0,-4.3136752E-1,4.1077817E2,3.178145E2,1.4101669E-1,7.0137143E-1,-5.2313435E-1,1.0112319E2,3.056348E1,-3.6157098E0,-9.090077E1,-2.417983E2,2.9164148E1,6.431992E-1,1.0155842E-1,8.6166537E-1,-2.5633166E0,-6.0081725E0,-2.635287E-2,-3.8208702E1,1.1514665E1,-3.7313062E-1,5.554248E-1,1.2577964E2,5.106386E-2,4.80132E1,2.2864319E1,8.811562E1,-5.064677E1,8.052816E1,-7.25347E0,-1.9183687E1,-7.767878E1,-2.542743E0,-4.6746828E-2,-1.781828E1,1.8800189E-1,-1.0855741E2,-3.6064686E1,4.703041E1,8.093757E0,-8.449147E1,6.8491945E0,1.3213E1,-2.4403749E0,-1.8079468E1,-7.319994E1,6.840867E1,-5.8607372E1],"split_indices":[1,18,0,0,1,0,0,0,0,2,5,0,0,0,17,8,2,0,0,0,6,1,2,18,12,17,0,0,0,0,2,0,0,0,7,13,2,0,0,0,0,0,0,3,19,18,2,1,9,0,0,14,4,0,3,0,0,0,0,0,0,0,0,0,0,0,16,0,0,0,0,0,0,0,0,0,0,0,0],"split_type":[0,0,0,0,0,0,0,0,0,0,0,0,0,0,0,0,0,0,0,0,0,0,0,0,0,0,0,0,0,0,0,0,0,0,0,0,0,0,0,0,0,0,0,0,0,0,0,0,0,0,0,0,0,0,0,0,0,0,0,0,0,0,0,0,0,0,0,0,0,0,0,0,0,0,0,0,0,0,0],"sum_hessian":[2.32E2,2.28E2,4E0,2E0,2.26E2,2E0,2E0,1E0,1E0,1.43E2,8.3E1,1E0,1E0,3E0,1.4E2,3.7E1,4.6E1,2E0,1E0,2E0,1.38E2,6E0,3.1E1,7E0,3.9E1,1.37E2,1E0,2E0,4E0,2E0,2.9E1,2E0,5E0,1E0,3.8E1,1.28E2,9E0,2E0,2E0,4E0,2.5E1,1E0,1E0,2.8E1,1E1,1.24E2,4E0,3E0,6E0,2E0,2E0,2E1,8E0,7E0,3E0,1.23E2,1E0,1E0,3E0,1E0,2E0,2E0,4E0,1E0,1E0,5E0,1.5E1,6E0,2E0,2E0,1E0,1.22E2,1E0,1E0,1E0,1E0,4E0,1.2E1,3E0],"tree_param":{"num_deleted":"0","num_feature":"22","num_nodes":"79","size_leaf_vector":"1"}},{"base_weights":[5.221703E1,3.716068E4,-6.931426E2,-9.548635E1,2.370286E3,8.428579E3,-8.0112646E2,5.9241925E2,3.97242E1,-9.063187E2,5.815885E3,-1.3955599E3,9.543289E1,3.5529053E2,4.8652687E1,-4.0424887E2,-1.5709451E3,1.5264541E3,-1.2046895E3,1.3032673E3,-1.1019268E3,-1.8658618E2,-1.6319945E3,-6.2584515E2,2.897718E3,-1.682922E3,3.3952518E2,-5.1591076E1,1.7842545E3,-1.6790536E3,8.4983887E2,5.2648346E1,-8.9300085E2,-1.6532947E3,-5.317371E2,3.790798E2,-1.4495734E3,-1.4803975E3,4.4393345E3,-1.7988967E3,5.0706768E1,-7.0473334E2,8.66791E1,1.0384377E2,3.509008E1,-1.8075468E3,2.9962647E0,-2.3511938E1,1.297418E3,1.58172245E1,-6.372117E1,-1.6663168E3,-5.465901E2,4.4747234E1,-5.6529755E1,-6.1256237E1,7.832697E2,-8.602921E1,-3.3402377E2,1.5566398E3,-3.0065405E3,1.8831064E3,5.5605225E3,-4.5812435E1,-9.6420746E1,2.3932527E2,-5.651109E1,-9.730489E1,-3.2541313E1,8.397567E1,3.0510752E1,-2.1375746E1,-1.6727048E3,6.6779666E0,-4.7672222E1,-9.526636E0,1.2882678E1,1.6755634E1,5.1780468E1,-2.4791749E0,-2.2572607E1,9.592187E1,2.0826124E1,-2.3575334E2,-7.0032104E1,3.7101555E1,1.0955652E2,6.4346797E3,1.101769E2,-7.717084E0,2.566648E1,-8.554325E1,-6.0323208E1,3.7063855E2,1.00378685E2],"categories":[],"categories_nodes":[],"categories_segments":[],"categories_sizes":[],"default_left":[0,0,0,0,0,0,0,0,0,0,0,0,0,0,0,0,0,0,0,0,0,0,0,0,0,0,0,0,0,0,0,0,0,0,0,0,0,0,0,0,0,0,0,0,0,0,0,0,0,0,0,0,0,0,0,0,0,0,0,0,0,0,0,0,0,0,0,0,0,0,0,0,0,0,0,0,0,0,0,0,0,0,0,0,0,0,0,0,0,0,0,0,0,0,0],"id":9,"left_children":[1,3,5,-1,-1,7,9,-1,-1,11,13,15,17,-1,-1,19,21,23,25,27,29,31,33,35,37,39,41,-1,43,45,47,-1,49,51,53,55,57,59,61,63,-1,65,-1,-1,-1,67,-1,-1,69,-1,-1,71,73,75,-1,-1,77,-1,79,81,83,85,87,-1,-1,89,-1,-1,-1,-1,-1,-1,91,-1,-1,-1,-1,-1,-1,-1,-1,-1,-1,-1,-1,-1,-1,93,-1,-1,-1,-1,-1,-1,-1],"loss_changes":[7.023523E9,2.0919204E9,2.5201712E8,0E0,0E0,6.890802E7,1.7719752E8,0E0,0E0,1.1971715E8,1.8073216E7,2.7878176E7,1.5253963E8,0E0,0E0,3.240981E7,1.1442976E7,1.1691696E8,3.2326612E7,1.0826214E7,2.2828834E7,7.06977E6,2.237824E6,1.3794066E7,1.6855694E8,1.2146424E7,1.7235026E7,0E0,7.59686E5,3.460024E6,3.564292E6,0E0,2.709514E6,9.6272E5,1.43152E6,6.146829E6,2.146218E6,3.712477E7,4.1117184E7,1.891304E6,0E0,3.0822935E6,0E0,0E0,0E0,9.7714E5,0E0,0E0,2.5444E4,0E0,0E0,2.97856E5,9.5750656E5,1.9936922E5,0E0,0E0,4.445685E5,0E0,7.78195E4,4.384025E5,7.11448E6,8.34462E5,2.1035328E7,0E0,0E0,4.028275E5,0E0,0E0,0E0,0E0,0E0,0E0,1.95424E5,0E0,0E0,0E0,0E0,0E0,0E0,0E0,0E0,0E0,0E0,0E0,0E0,0E0,0E0,2.4089376E7,0E0,0E0,0E0,0E0,0E0,0E0,0E0],"parents":[2147483647,0,0,1,1,2,2,5,5,6,6,9,9,10,10,11,11,12,12,15,15,16,16,17,17,18,18,19,19,20,20,21,21,22,22,23,23,24,24,25,25,26,26,28,28,29,29,30,30,32,32,33,33,34,34,35,35,36,36,37,37,38,38,39,39,41,41,45,45,48,48,51,51,52,52,53,53,56,56,58,58,59,59,60,60,61,61,62,62,65,65,72,72,87,87],"right_children":[2,4,6,-1,-1,8,10,-1,-1,12,14,16,18,-1,-1,20,22,24,26,28,30,32,34,36,38,40,42,-1,44,46,48,-1,50,52,54,56,58,60,62,64,-1,66,-1,-1,-1,68,-1,-1,70,-1,-1,72,74,76,-1,-1,78,-1,80,82,84,86,88,-1,-1,90,-1,-1,-1,-1,-1,-1,92,-1,-1,-1,-1,-1,-1,-1,-1,-1,-1,-1,-1,-1,-1,94,-1,-1,-1,-1,-1,-1,-1],"split_conditions":[-1.0897419E1,7.6365924E0,-9.3612456E-1,-9.548635E1,2.370286E3,-6.8864565E0,9.8611265E-1,5.9241925E2,3.97242E1,1.5740384E0,-3.5878341E0,-2.367296E0,8.644983E-1,3.5529053E2,4.8652687E1,-3.8726667E-1,-5.311792E-1,-2.4447207E-1,7.8015633E0,-2.0058681E-1,3.6676428E-1,-5.0217636E-2,7.294767E-1,-2.0931567E-1,-2.4123313E-1,7.720676E-1,-7.283098E-1,-5.1591076E1,-1.6426902E-1,-1.4745787E0,-5.4746213E0,5.2648346E1,-1.196514E0,4.80132E1,-1.253638E0,-1.0129799E0,2.3818226E-1,-1.2687216E1,-3.199546E-1,-2.300756E-1,5.0706768E1,8.424446E0,8.66791E1,1.0384377E2,3.509008E1,4.9675083E-1,2.9962647E0,-2.3511938E1,-3.394955E1,1.58172245E1,-6.372117E1,-7.7277434E-1,5.470934E1,-2.37812E1,-5.6529755E1,-6.1256237E1,4.9711533E0,-8.602921E1,1.1514665E1,-5.4649498E1,-4.3136752E-1,5.2303023E0,3.8714203E-1,-4.5812435E1,-9.6420746E1,-2.6952415E1,-5.651109E1,-9.730489E1,-3.2541313E1,8.397567E1,3.0510752E1,-2.1375746E1,4.856702E-1,6.6779666E0,-4.7672222E1,-9.526636E0,1.2882678E1,1.6755634E1,5.1780468E1,-2.4791749E0,-2.2572607E1,9.592187E1,2.0826124E1,-2.3575334E2,-7.0032104E1,3.7101555E1,1.0955652E2,3.7471175E-1,1.101769E2,-7.717084E0,2.566648E1,-8.554325E1,-6.0323208E1,3.7063855E2,1.00378685E2],"split_indices":[2,1,18,0,0,0,6,0,0,1,0,2,2,0,0,14,13,9,1,8,20,3,17,8,15,9,3,0,7,1,1,0,2,0,1,10,14,0,12,16,0,1,0,0,0,6,0,0,0,0,0,20,0,0,0,0,1,0,0,0,0,1,4,0,0,0,0,0,0,0,0,0,15,0,0,0,0,0,0,0,0,0,0,0,0,0,0,14,0,0,0,0,0,0,0],"split_type":[0,0,0,0,0,0,0,0,0,0,0,0,0,0,0,0,0,0,0,0,0,0,0,0,0,0,0,0,0,0,0,0,0,0,0,0,0,0,0,0,0,0,0,0,0,0,0,0,0,0,0,0,0,0,0,0,0,0,0,0,0,0,0,0,0,0,0,0,0,0,0,0,0,0,0,0,0,0,0,0,0,0,0,0,0,0,0,0,0,0,0,0,0,0,0],"sum_hessian":[2.52E2,4E0,2.48E2,1E0,3E0,2E0,2.46E2,1E0,1E0,2.43E2,3E0,1.63E2,8E1,2E0,1E0,2.5E1,1.38E2,3.8E1,4.2E1,7E0,1.8E1,6E0,1.32E2,1.5E1,2.3E1,3.2E1,1E1,1E0,6E0,1.4E1,4E0,2E0,4E0,1.29E2,3E0,7E0,8E0,6E0,1.7E1,3.1E1,1E0,6E0,4E0,4E0,2E0,1.3E1,1E0,1E0,3E0,1E0,3E0,1.27E2,2E0,2E0,1E0,1E0,6E0,6E0,2E0,2E0,4E0,6E0,1.1E1,5E0,2.6E1,2E0,4E0,1.1E1,2E0,1E0,2E0,1E0,1.26E2,1E0,1E0,1E0,1E0,3E0,3E0,1E0,1E0,1E0,1E0,1E0,3E0,2E0,4E0,8E0,3E0,1E0,1E0,1.14E2,1.2E1,6E0,2E0],"tree_param":{"num_deleted":"0","num_feature":"22","num_nodes":"95","size_leaf_vector":"1"}},{"base_weights":[2.048246E1,2.8282723E4,-6.2191876E2,2.2814001E3,-4.2718906E3,-1.3061619E3,1.3695194E3,-4.006148E1,-2.803303E2,-1.3675156E3,3.1172258E3,7.4664634E3,4.321525E2,-1.0567579E3,-1.613216E3,1.8635558E2,4.7436367E1,-1.6625139E2,9.670989E3,-1.2837294E2,4.6944697E3,-1.2155393E3,7.0284644E2,-1.6249298E3,-9.28847E0,-2.7558289E1,1.5089435E1,9.352382E1,5.329665E2,-1.3087412E3,6.0445374E2,3.78219E2,6.5094244E2,-8.0025696E2,-1.6315793E3,-6.898593E2,2.268017E3,-1.64267E3,-2.3414608E1,8.826259E1,-1.7252274E3,-8.179283E2,1.6410176E3,-5.4789196E1,7.9922295E1,8.945199E2,-9.9701666E2,-1.2186121E1,-1.6609161E3,-5.1962257E1,1.7692102E1,1.5136166E2,-2.4078369E-1,-1.6515881E3,-1.8102705E1,1.706944E1,-1.8590055E3,-1.6177982E3,8.418271E1,2.6482556E3,5.7616327E2,2.4457536E2,6.2314556E1,4.4202374E1,-1.122589E3,-1.6869187E3,-1.6820501E1,-1.9137085E1,-1.6602755E3,-9.763516E1,-3.6980785E1,-9.076267E1,-3.4181095E1,7.2735254E2,-3.7041264E1,3.2612217E3,1.3092757E2,-2.638678E1,1.0560923E3,2.9213562E0,1.5421796E1,-1.009112E2,-1.3170779E3,-1.712645E3,-1.8376099E1,-8.342724E1,-2.062702E1,-7.524158E0,9.8443225E2,2.6289747E1,1.7884416E2,-2.1520563E1,3.1340132E1,5.821313E1,7.4725223E0,-5.455508E1,4.572535E1,3.0044801E0,-7.070635E1,-3.921571E1,-8.8574425E1,1.4876269E1,5.5711304E1],"categories":[],"categories_nodes":[],"categories_segments":[],"categories_sizes":[],"default_left":[0,0,0,0,0,0,0,0,0,0,0,0,0,0,0,0,0,0,0,0,0,0,0,0,0,0,0,0,0,0,0,0,0,0,0,0,0,0,0,0,0,0,0,0,0,0,0,0,0,0,0,0,0,0,0,0,0,0,0,0,0,0,0,0,0,0,0,0,0,0,0,0,0,0,0,0,0,0,0,0,0,0,0,0,0,0,0,0,0,0,0,0,0,0,0,0,0,0,0,0,0,0,0],"id":10,"left_children":[1,3,5,-1,7,9,11,-1,-1,13,15,17,19,21,23,-1,-1,25,27,29,31,33,35,37,-1,-1,-1,-1,-1,39,41,-1,43,45,47,49,51,53,-1,-1,55,57,59,-1,-1,61,63,-1,65,-1,-1,-1,-1,67,-1,-1,69,71,73,75,77,79,-1,-1,81,83,-1,-1,85,-1,-1,-1,-1,87,-1,89,91,-1,93,-1,-1,95,97,99,-1,-1,-1,-1,101,-1,-1,-1,-1,-1,-1,-1,-1,-1,-1,-1,-1,-1,-1],"loss_changes":[4.901473E9,3.582931E9,3.6152256E8,0E0,9.404856E6,5.772704E7,3.8539837E8,0E0,0E0,1.3184128E7,4.31596E5,1.530465E8,1.439509E8,2.5720272E7,1.487296E6,0E0,0E0,7.068017E5,3.4028864E7,4.7501364E7,7.630794E7,1.2861792E7,1.900319E7,1.40576E6,0E0,0E0,0E0,0E0,0E0,2.9931252E7,5.147149E7,0E0,8.371669E6,1.523079E7,1.2238E6,2.191001E6,6.916864E6,5.89792E5,0E0,0E0,5.887532E6,1.0959764E7,1.9925408E7,0E0,0E0,8.38347E5,1.02046E7,0E0,7.75688E5,0E0,0E0,0E0,0E0,4.99904E5,0E0,0E0,4.43668E5,2.34716E5,4.783803E6,1.5003384E7,6.3850615E6,1.7641562E4,0E0,0E0,7.219172E6,6.60408E5,0E0,0E0,3.64096E5,0E0,0E0,0E0,0E0,1.2765092E6,0E0,5.027048E6,1.1048446E6,0E0,6.10573E5,0E0,0E0,8.036021E6,4.228216E6,6.3176E5,0E0,0E0,0E0,0E0,2.51145E4,0E0,0E0,0E0,0E0,0E0,0E0,0E0,0E0,0E0,0E0,0E0,0E0,0E0,0E0],"parents":[2147483647,0,0,1,1,2,2,4,4,5,5,6,6,9,9,10,10,11,11,12,12,13,13,14,14,17,17,18,18,19,19,20,20,21,21,22,22,23,23,29,29,30,30,32,32,33,33,34,34,35,35,36,36,37,37,40,40,41,41,42,42,45,45,46,46,48,48,53,53,56,56,57,57,58,58,59,59,60,60,61,61,64,64,65,65,68,68,73,73,75,75,76,76,78,78,81,81,82,82,83,83,88,88],"right_children":[2,4,6,-1,8,10,12,-1,-1,14,16,18,20,22,24,-1,-1,26,28,30,32,34,36,38,-1,-1,-1,-1,-1,40,42,-1,44,46,48,50,52,54,-1,-1,56,58,60,-1,-1,62,64,-1,66,-1,-1,-1,-1,68,-1,-1,70,72,74,76,78,80,-1,-1,82,84,-1,-1,86,-1,-1,-1,-1,88,-1,90,92,-1,94,-1,-1,96,98,100,-1,-1,-1,-1,102,-1,-1,-1,-1,-1,-1,-1,-1,-1,-1,-1,-1,-1,-1],"split_conditions":[-1.0897419E1,1.00547E0,2.5489628E0,2.2814001E3,-2.7884312E1,9.8611265E-1,-1.7637503E0,-4.006148E1,-2.803303E2,2.4623235E-1,-1.0917116E1,3.7328175E-1,7.489707E-1,4.29608E-1,7.918572E-1,1.8635558E2,4.7436367E1,-5.4649498E1,-5.4649498E1,4.743766E-2,-2.0705962E-1,3.516703E-2,2.7119341E-1,6.29419E-1,-9.28847E0,-2.7558289E1,1.5089435E1,9.352382E1,5.329665E2,-6.1013204E-1,-1.3830052E-1,3.78219E2,-1.3155745E1,-4.0203333E-1,-7.81038E-1,-6.6686314E-1,1.0660211E1,1.1246574E0,-2.3414608E1,8.826259E1,-6.81601E-1,1.0876448E0,3.1983054E0,-5.4789196E1,7.9922295E1,-9.5904845E-1,-5.1483307E0,-1.2186121E1,5.779911E-1,-5.1962257E1,1.7692102E1,1.5136166E2,-2.4078369E-1,-8.749764E-1,-1.8102705E1,1.706944E1,6.503113E-1,1.0249096E-2,3.0548698E-1,6.8163967E0,-2.300756E-1,-2.1007467E1,6.2314556E1,4.4202374E1,-9.476548E0,2.2114164E-1,-1.6820501E1,-1.9137085E1,9.0538454E-1,-9.763516E1,-3.6980785E1,-9.076267E1,-3.4181095E1,-2.6952415E1,-3.7041264E1,-1.1562572E0,-3.626409E1,-2.638678E1,2.162534E0,2.9213562E0,1.5421796E1,-3.82382E0,-5.3337183E0,-3.690893E-1,-1.8376099E1,-8.342724E1,-2.062702E1,-7.524158E0,-1.877658E1,2.6289747E1,1.7884416E2,-2.1520563E1,3.1340132E1,5.821313E1,7.4725223E0,-5.455508E1,4.572535E1,3.0044801E0,-7.070635E1,-3.921571E1,-8.8574425E1,1.4876269E1,5.5711304E1],"split_indices":[2,4,1,0,0,6,2,0,0,2,0,6,5,17,17,0,0,0,0,5,20,11,15,15,0,0,0,0,0,19,7,0,0,17,12,1,0,7,0,0,8,2,0,0,0,1,2,0,14,0,0,0,0,12,0,0,4,11,9,1,16,0,0,0,0,2,0,0,9,0,0,0,0,0,0,4,0,0,3,0,0,1,3,20,0,0,0,0,0,0,0,0,0,0,0,0,0,0,0,0,0,0,0],"split_type":[0,0,0,0,0,0,0,0,0,0,0,0,0,0,0,0,0,0,0,0,0,0,0,0,0,0,0,0,0,0,0,0,0,0,0,0,0,0,0,0,0,0,0,0,0,0,0,0,0,0,0,0,0,0,0,0,0,0,0,0,0,0,0,0,0,0,0,0,0,0,0,0,0,0,0,0,0,0,0,0,0,0,0,0,0,0,0,0,0,0,0,0,0,0,0,0,0,0,0,0,0,0,0],"sum_hessian":[2.68E2,5E0,2.63E2,3E0,2E0,1.96E2,6.7E1,1E0,1E0,1.94E2,2E0,8E0,5.9E1,8.8E1,1.06E2,1E0,1E0,2E0,6E0,5.3E1,6E0,8.1E1,7E0,1.05E2,1E0,1E0,1E0,1E0,5E0,2E1,3.3E1,3E0,3E0,4.2E1,3.9E1,4E0,3E0,1.03E2,2E0,2E0,1.8E1,1.4E1,1.9E1,1E0,2E0,4E0,3.8E1,1E0,3.8E1,3E0,1E0,2E0,1E0,1.02E2,1E0,1E0,1.7E1,7E0,7E0,9E0,1E1,2E0,2E0,2E0,3.6E1,3.7E1,1E0,1E0,1.01E2,1.5E1,2E0,5E0,2E0,4E0,3E0,7E0,2E0,3E0,7E0,1E0,1E0,6E0,3E1,3.6E1,1E0,1E2,1E0,1E0,3E0,1E0,6E0,1E0,1E0,6E0,1E0,3E0,3E0,2E0,2.8E1,3E0,3.3E1,1E0,2E0],"tree_param":{"num_deleted":"0","num_feature":"22","num_nodes":"103","size_leaf_vector":"1"}},{"base_weights":[6.113284E0,2.2818412E4,-6.5927094E2,2.1958477E3,-3.9847292E3,5.642846E2,-7.564703E2,-3.9059944E1,-2.3960867E2,-1.0552865E3,1.3604589E3,1.8950652E2,-1.2557755E3,2.666176E1,4.025387E3,2.6104336E3,-8.0948663E2,-1.4407104E3,-1.9378432E2,-7.71391E2,1.732966E3,6.766845E3,-6.944009E1,4.3759585E3,-6.9046265E2,-2.372552E3,4.5513956E2,-8.1161646E2,-1.5077676E3,2.5257787E2,-7.9156274E2,-1.3881296E3,3.8507193E2,2.1760994E3,-2.3145863E1,1.2127541E2,4.1655685E2,-4.924563E1,4.345895E1,2.5170543E2,2.7130274E1,-4.5130608E1,-1.3503541E0,-7.776763E1,-2.431837E2,1.4912186E3,-1.0021558E3,4.4547076E2,-1.2326796E3,-4.3532632E2,-1.5203379E3,8.952626E2,-1.3423735E3,3.045133E1,-8.388528E1,-4.1164944E1,5.97541E1,1.2834384E2,4.6484818E1,8.9002846E1,3.7868313E1,7.0156555E0,-1.2587122E3,4.603061E1,-3.6377373E1,1.5036249E1,-1.3855237E3,-4.7361675E1,1.4712201E1,-1.5713423E3,-1.1846174E3,-4.782345E1,1.8272489E3,-1.6101968E3,3.560122E1,-1.8032099E1,-6.9653465E1,-2.7948088E1,-1.4949398E3,-1.8658659E1,-1.5785791E3,-2.8708088E-1,-1.3022179E3,1.013868E2,2.5632502E1,-1.6784906E3,-1.123006E1,-2.0480726E1,-7.850094E1,-7.971016E1,-3.7518353E1,-6.738909E1,-1.0912659E1,-4.5917854E1,-9.2086754E1],"categories":[],"categories_nodes":[],"categories_segments":[],"categories_sizes":[],"default_left":[0,0,0,0,0,0,0,0,0,0,0,0,0,0,0,0,0,0,0,0,0,0,0,0,0,0,0,0,0,0,0,0,0,0,0,0,0,0,0,0,0,0,0,0,0,0,0,0,0,0,0,0,0,0,0,0,0,0,0,0,0,0,0,0,0,0,0,0,0,0,0,0,0,0,0,0,0,0,0,0,0,0,0,0,0,0,0,0,0,0,0,0,0,0,0],"id":11,"left_children":[1,3,5,-1,7,-1,9,-1,-1,11,13,15,17,19,21,23,25,27,29,31,33,35,37,39,41,43,45,47,49,-1,51,53,55,57,-1,-1,-1,-1,-1,-1,-1,-1,-1,-1,-1,59,61,63,65,67,69,71,73,-1,-1,-1,-1,-1,-1,-1,-1,-1,75,-1,-1,-1,77,-1,-1,79,81,-1,83,85,-1,-1,-1,-1,87,-1,89,-1,91,-1,-1,93,-1,-1,-1,-1,-1,-1,-1,-1,-1],"loss_changes":[3.7490637E9,4.1335468E9,2.8718762E8,0E0,6.603048E6,0E0,1.5262058E8,0E0,0E0,5.264712E7,1.0652688E8,7.466779E7,3.5269056E7,2.9932928E7,1.1272784E8,5.5471776E7,4.4567096E7,5.2728E6,9.179408E7,1.123306E7,7.818838E6,2.0539456E7,5.1524655E6,1.2405984E7,5.386301E5,1.2792708E7,2.1122786E7,9.547444E6,1.198496E6,0E0,2.5358934E7,6.80505E6,6.856666E6,5.3598E5,0E0,0E0,0E0,0E0,0E0,0E0,0E0,0E0,0E0,0E0,0E0,3.47562E5,1.9352605E6,3.456537E6,3.463498E6,1.3991348E6,4.67296E5,1.3828227E7,1.2150812E7,0E0,0E0,0E0,0E0,0E0,0E0,0E0,0E0,0E0,1.00911E5,0E0,0E0,0E0,2.49656E5,0E0,0E0,4.08096E5,3.042526E6,0E0,2.78282E5,1.326308E6,0E0,0E0,0E0,0E0,1.71748E5,0E0,2.78912E5,0E0,6.93632E5,0E0,0E0,4.1812E5,0E0,0E0,0E0,0E0,0E0,0E0,0E0,0E0,0E0],"parents":[2147483647,0,0,1,1,2,2,4,4,6,6,9,9,10,10,11,11,12,12,13,13,14,14,15,15,16,16,17,17,18,18,19,19,20,20,21,21,22,22,23,23,24,24,25,25,26,26,27,27,28,28,30,30,31,31,32,32,33,33,45,45,46,46,47,47,48,48,49,49,50,50,51,51,52,52,62,62,66,66,69,69,70,70,72,72,73,73,78,78,80,80,82,82,85,85],"right_children":[2,4,6,-1,8,-1,10,-1,-1,12,14,16,18,20,22,24,26,28,30,32,34,36,38,40,42,44,46,48,50,-1,52,54,56,58,-1,-1,-1,-1,-1,-1,-1,-1,-1,-1,-1,60,62,64,66,68,70,72,74,-1,-1,-1,-1,-1,-1,-1,-1,-1,76,-1,-1,-1,78,-1,-1,80,82,-1,84,86,-1,-1,-1,-1,88,-1,90,-1,92,-1,-1,94,-1,-1,-1,-1,-1,-1,-1,-1,-1],"split_conditions":[-1.0897419E1,1.00547E0,-9.3612456E-1,2.1958477E3,-2.7884312E1,5.642846E2,5.385357E0,-3.9059944E1,-2.3960867E2,-1.8952992E0,5.410859E-1,-1.3784702E-1,2.8133273E0,2.065117E-1,4.7442812E-2,3.1327388E-1,1.0603849E-1,-5.311792E-1,2.855611E0,-5.031007E-1,1.4990401E1,6.156628E-1,-5.462903E-1,3.56344E-1,4.0811354E-1,2.3648343E0,2.243422E0,-1.7226219E-1,-1.7637503E0,2.5257787E2,-1.8790382E0,-2.9400513E1,6.2415996E0,6.9603662E0,-2.3145863E1,1.2127541E2,4.1655685E2,-4.924563E1,4.345895E1,2.5170543E2,2.7130274E1,-4.5130608E1,-1.3503541E0,-7.776763E1,-2.431837E2,1.9351493E-1,-1.8109943E1,5.933123E0,-1.196514E0,4.886694E0,4.3593496E-1,-1.3094163E-1,7.016849E-1,3.045133E1,-8.388528E1,-4.1164944E1,5.97541E1,1.2834384E2,4.6484818E1,8.9002846E1,3.7868313E1,7.0156555E0,-3.6157098E0,4.603061E1,-3.6377373E1,1.5036249E1,-4.52603E0,-4.7361675E1,1.4712201E1,-8.749764E-1,-3.8804847E-1,-4.782345E1,-3.4340398E0,5.028991E0,3.560122E1,-1.8032099E1,-6.9653465E1,-2.7948088E1,-3.9406243E-1,-1.8658659E1,4.80132E1,-2.8708088E-1,2.4944692E0,1.013868E2,2.5632502E1,-2.953842E-1,-1.123006E1,-2.0480726E1,-7.850094E1,-7.971016E1,-3.7518353E1,-6.738909E1,-1.0912659E1,-4.5917854E1,-9.2086754E1],"split_indices":[2,4,18,0,0,0,1,0,0,2,3,12,1,4,16,4,12,13,1,3,0,3,5,0,0,1,3,18,2,0,3,0,1,1,0,0,0,0,0,0,0,0,0,0,0,7,0,0,2,0,13,5,5,0,0,0,0,0,0,0,0,0,0,0,0,0,1,0,0,12,19,0,0,1,0,0,0,0,9,0,0,0,3,0,0,7,0,0,0,0,0,0,0,0,0],"split_type":[0,0,0,0,0,0,0,0,0,0,0,0,0,0,0,0,0,0,0,0,0,0,0,0,0,0,0,0,0,0,0,0,0,0,0,0,0,0,0,0,0,0,0,0,0,0,0,0,0,0,0,0,0,0,0,0,0,0,0,0,0,0,0,0,0,0,0,0,0,0,0,0,0,0,0,0,0,0,0,0,0,0,0,0,0,0,0,0,0,0,0,0,0,0,0],"sum_hessian":[2.45E2,6E0,2.39E2,3E0,3E0,1E0,2.38E2,1E0,2E0,2.09E2,2.9E1,2.9E1,1.8E2,2E1,9E0,8E0,2.1E1,1.53E2,2.7E1,1.4E1,6E0,5E0,4E0,5E0,3E0,9E0,1.2E1,1.6E1,1.37E2,2E0,2.5E1,9E0,5E0,5E0,1E0,2E0,3E0,2E0,2E0,4E0,1E0,2E0,1E0,8E0,1E0,7E0,5E0,4E0,1.2E1,2E0,1.35E2,6E0,1.9E1,1E0,8E0,2E0,3E0,3E0,2E0,4E0,3E0,1E0,4E0,3E0,1E0,1E0,1.1E1,1E0,1E0,1.14E2,2.1E1,2E0,4E0,1.7E1,2E0,1E0,3E0,2E0,9E0,1E0,1.13E2,2E0,1.9E1,3E0,1E0,1.6E1,1E0,1E0,8E0,1.1E2,3E0,1.8E1,1E0,4E0,1.2E1],"tree_param":{"num_deleted":"0","num_feature":"22","num_nodes":"95","size_leaf_vector":"1"}},{"base_weights":[1.11776054E2,2.3534773E4,-6.51353E2,2.2520508E3,-3.85516E3,-1.2944438E3,6.711754E2,-3.8083443E1,-2.316217E2,-1.26782166E2,-1.3893506E3,6.2943955E3,5.527214E1,-1.0648839E3,6.954168E2,-1.40767E3,2.61784E1,3.7974658E2,-3.7720592E1,-1.2676046E3,1.0285688E3,-7.11661E1,1.8182653E1,-2.1450854E2,5.511443E1,-5.1355194E2,-1.4243531E3,-1.4532499E3,9.3620445E1,-2.8096982E2,2.2212021E3,6.840265E0,-2.2928406E1,-3.411101E1,-1.8867798E-1,-3.6228832E1,-1.4408176E3,-1.5330768E3,1.55562315E1,-9.506939E2,1.002942E3,3.2093576E2,3.4613018E3,-1.4473339E3,-1.5657382E1,-1.5826967E3,-3.1254593E1,-1.2342507E3,2.0295622E1,1.0314925E2,1.6632784E2,-9.6844977E2,7.730671E1,3.0501608E2,2.3234656E3,-1.6400282E1,-1.4537155E3,-8.063352E1,-2.2332483E1,-1.4381901E3,2.0128584E1,-4.5371924E2,3.6546616E1,-5.5053455E1,-1.094931E1,1.5091792E2,5.1245064E1,-1.4595419E3,-1.8426619E1,8.189918E0,-1.6343887E3,-5.238922E0,-2.8790022E1,-7.3244514E1,-2.0175861E1,-3.504147E1,-9.005007E1],"categories":[],"categories_nodes":[],"categories_segments":[],"categories_sizes":[],"default_left":[0,0,0,0,0,0,0,0,0,0,0,0,0,0,0,0,0,0,0,0,0,0,0,0,0,0,0,0,0,0,0,0,0,0,0,0,0,0,0,0,0,0,0,0,0,0,0,0,0,0,0,0,0,0,0,0,0,0,0,0,0,0,0,0,0,0,0,0,0,0,0,0,0,0,0,0,0],"id":12,"left_children":[1,3,5,-1,7,9,11,-1,-1,13,15,17,19,21,23,25,-1,-1,-1,27,29,-1,-1,31,-1,33,35,37,-1,39,41,-1,-1,-1,-1,-1,43,45,-1,47,49,51,53,55,-1,57,-1,59,-1,-1,61,63,-1,-1,65,-1,67,-1,-1,69,-1,71,-1,-1,-1,-1,-1,73,-1,-1,75,-1,-1,-1,-1,-1,-1],"loss_changes":[3.965654E9,4.2970214E9,1.8372758E8,0E0,6.089584E6,1.5892592E7,2.4555061E8,0E0,0E0,9.996213E6,5.43288E6,6.990035E7,8.499467E7,3.5898465E6,2.8280115E6,1.252416E6,0E0,0E0,0E0,1.9043072E7,5.9972468E7,0E0,0E0,3.1995906E5,0E0,3.4135938E5,4.53808E5,4.279784E6,0E0,1.7290958E7,4.6019536E7,0E0,0E0,0E0,0E0,0E0,4.7264E5,1.82076E5,0E0,5.501772E6,5.8647965E6,1.5715131E7,2.1859392E7,4.16064E5,0E0,9.694E4,0E0,4.250913E6,0E0,0E0,2.0820448E6,2.55848E5,0E0,0E0,5.930112E6,0E0,2.46128E5,0E0,0E0,3.410788E6,0E0,6.7465875E4,0E0,0E0,0E0,0E0,0E0,1.036E5,0E0,0E0,1.37692E5,0E0,0E0,0E0,0E0,0E0,0E0],"parents":[2147483647,0,0,1,1,2,2,4,4,5,5,6,6,9,9,10,10,11,11,12,12,13,13,14,14,15,15,19,19,20,20,23,23,25,25,26,26,27,27,29,29,30,30,36,36,37,37,39,39,40,40,41,41,42,42,43,43,45,45,47,47,50,50,51,51,54,54,56,56,59,59,61,61,67,67,70,70],"right_children":[2,4,6,-1,8,10,12,-1,-1,14,16,18,20,22,24,26,-1,-1,-1,28,30,-1,-1,32,-1,34,36,38,-1,40,42,-1,-1,-1,-1,-1,44,46,-1,48,50,52,54,56,-1,58,-1,60,-1,-1,62,64,-1,-1,66,-1,68,-1,-1,70,-1,72,-1,-1,-1,-1,-1,74,-1,-1,76,-1,-1,-1,-1,-1,-1],"split_conditions":[-9.142882E0,1.00547E0,2.012879E0,2.2520508E3,-2.7884312E1,-3.229713E0,-1.8952992E0,-3.8083443E1,-2.316217E2,-1.6987103E-1,1.0120096E0,7.848416E0,4.743766E-2,1.3761204E0,-1.2445565E1,-3.82109E1,2.61784E1,3.7974658E2,-3.7720592E1,1.1893115E1,-1.3830052E-1,-7.11661E1,1.8182653E1,-1.8109943E1,5.511443E1,-2.445837E0,-7.81038E-1,6.410542E-1,9.3620445E1,5.7796855E0,-1.3344286E-1,6.840265E0,-2.2928406E1,-3.411101E1,-1.8867798E-1,-3.6228832E1,1.1246574E0,9.927347E0,1.55562315E1,-1.9246621E-1,1.2886031E0,-7.084454E-2,-8.585086E-2,-8.817485E-1,-1.5657382E1,6.18964E-1,-3.1254593E1,3.118458E-1,2.0295622E1,1.0314925E2,2.6421318E0,1.8134449E1,7.730671E1,3.0501608E2,-3.0093992E-1,-1.6400282E1,8.442482E-1,-8.063352E1,-2.2332483E1,-1.877658E1,2.0128584E1,-2.6952415E1,3.6546616E1,-5.5053455E1,-1.094931E1,1.5091792E2,5.1245064E1,1.772313E0,-1.8426619E1,8.189918E0,-5.453993E-1,-5.238922E0,-2.8790022E1,-7.3244514E1,-2.0175861E1,-3.504147E1,-9.005007E1],"split_indices":[2,4,1,0,0,2,2,0,0,6,8,1,5,3,0,0,0,0,0,1,7,0,0,0,0,1,12,20,0,1,12,0,0,0,0,0,7,1,0,7,2,21,7,7,0,8,0,18,0,0,2,0,0,0,14,0,9,0,0,0,0,0,0,0,0,0,0,5,0,0,7,0,0,0,0,0,0],"split_type":[0,0,0,0,0,0,0,0,0,0,0,0,0,0,0,0,0,0,0,0,0,0,0,0,0,0,0,0,0,0,0,0,0,0,0,0,0,0,0,0,0,0,0,0,0,0,0,0,0,0,0,0,0,0,0,0,0,0,0,0,0,0,0,0,0,0,0,0,0,0,0,0,0,0,0,0,0],"sum_hessian":[2.2E2,6E0,2.14E2,3E0,3E0,1.44E2,7E1,1E0,2E0,1.1E1,1.33E2,6E0,6.4E1,5E0,6E0,1.32E2,1E0,5E0,1E0,2.7E1,3.7E1,4E0,1E0,2E0,4E0,3E0,1.29E2,2.6E1,1E0,1.8E1,1.9E1,1E0,1E0,2E0,1E0,4E0,1.25E2,2.5E1,1E0,1.2E1,6E0,8E0,1.1E1,1.24E2,1E0,2.3E1,2E0,1E1,2E0,2E0,4E0,4E0,4E0,2E0,9E0,1E0,1.23E2,2.2E1,1E0,9E0,1E0,2E0,2E0,3E0,1E0,5E0,4E0,1.22E2,1E0,1E0,8E0,1E0,1E0,1.21E2,1E0,2E0,6E0],"tree_param":{"num_deleted":"0","num_feature":"22","num_nodes":"77","size_leaf_vector":"1"}},{"base_weights":[-5.46264E1,2.8810646E4,-6.873972E2,-2.615413E2,1.9314362E3,4.938762E2,-7.77452E2,-9.3307086E2,1.3330887E3,-1.00498285E3,3.0575977E3,5.013301E3,9.817048E1,-2.9340536E2,-9.533904E2,3.077392E2,-2.6392334E1,3.6338815E2,-4.3752132E1,1.4068864E3,-8.9563776E2,-6.698038E2,-1.4271572E3,4.870387E1,-5.0683296E1,1.5167328E1,7.834625E1,2.735148E2,-6.654705E1,-1.0293395E3,4.8591217E2,-1.4380768E3,-1.4931803E1,-5.107947E0,2.5621557E1,-1.0879498E3,1.2479155E3,2.539214E3,-5.6282574E2,-1.4492163E3,-1.5065384E1,7.6257744E1,-1.1301769E3,1.7683538E1,7.5910126E1,3.496169E3,-9.498962E0,-8.848291E2,5.536985E1,-2.600031E1,-1.4675507E3,-6.055965E1,4.802976E0,7.256112E1,2.216446E2,-5.3291656E1,3.489451E1,8.089934E0,-5.873582E1,-1.6745527E1,-7.393151E1],"categories":[],"categories_nodes":[],"categories_segments":[],"categories_sizes":[],"default_left":[0,0,0,0,0,0,0,0,0,0,0,0,0,0,0,0,0,0,0,0,0,0,0,0,0,0,0,0,0,0,0,0,0,0,0,0,0,0,0,0,0,0,0,0,0,0,0,0,0,0,0,0,0,0,0,0,0,0,0,0,0],"id":13,"left_children":[1,3,5,-1,-1,-1,7,9,11,13,15,17,19,-1,21,-1,23,-1,-1,25,27,29,31,-1,-1,-1,-1,33,-1,35,37,39,-1,-1,-1,41,43,45,47,49,-1,-1,51,-1,-1,53,55,57,-1,-1,59,-1,-1,-1,-1,-1,-1,-1,-1,-1,-1],"loss_changes":[4.2573084E9,1.8731686E9,2.2460352E8,0E0,0E0,0E0,7.579974E7,6.3911936E7,7.2224024E7,4.6843616E7,3.8369204E7,5.9459784E7,1.8168024E7,0E0,2.6989696E7,0E0,3.9506008E6,0E0,0E0,5.84333E5,4.4355205E6,5.5348948E7,5.19408E5,0E0,0E0,0E0,0E0,3.216132E5,0E0,1.4838216E7,7.033715E7,5.25728E5,0E0,0E0,0E0,1.2647744E7,1.881645E5,2.6862248E7,1.2811838E7,5.14592E5,0E0,0E0,9.852144E6,0E0,0E0,8.891272E6,3.7327915E6,5.954748E6,0E0,0E0,4.20896E5,0E0,0E0,0E0,0E0,0E0,0E0,0E0,0E0,0E0,0E0],"parents":[2147483647,0,0,1,1,2,2,6,6,7,7,8,8,9,9,10,10,11,11,12,12,14,14,16,16,19,19,20,20,21,21,22,22,27,27,29,29,30,30,31,31,35,35,36,36,37,37,38,38,39,39,42,42,45,45,46,46,47,47,50,50],"right_children":[2,4,6,-1,-1,-1,8,10,12,14,16,18,20,-1,22,-1,24,-1,-1,26,28,30,32,-1,-1,-1,-1,34,-1,36,38,40,-1,-1,-1,42,44,46,48,50,-1,-1,52,-1,-1,54,56,58,-1,-1,60,-1,-1,-1,-1,-1,-1,-1,-1,-1,-1],"split_conditions":[-1.0897419E1,-1.4166306E1,-9.3612456E-1,-2.615413E2,1.9314362E3,4.938762E2,7.6839514E0,1.0148222E0,7.848416E0,-1.0847051E1,-3.5878341E0,1.3731124E1,-9.084129E-2,-2.9340536E2,1.1843077E0,3.077392E2,1.3502498E1,3.6338815E2,-4.3752132E1,-1.6772566E0,-1.9535831E1,1.6290994E0,6.3685006E-1,4.870387E1,-5.0683296E1,1.5167328E1,7.834625E1,-2.6952415E1,-6.654705E1,6.860989E-1,3.1714141E0,6.0962284E-1,-1.4931803E1,-5.107947E0,2.5621557E1,-8.924173E-1,-7.25347E0,-1.10866405E-1,6.5079916E-1,-1.0386807E0,-1.5065384E1,7.6257744E1,5.457518E-1,1.7683538E1,7.5910126E1,3.2431994E-2,2.3648343E0,-1.3711302E0,5.536985E1,-2.600031E1,-8.370875E-1,-6.055965E1,4.802976E0,7.256112E1,2.216446E2,-5.3291656E1,3.489451E1,8.089934E0,-5.873582E1,-1.6745527E1,-7.393151E1],"split_indices":[2,0,18,0,0,0,1,6,1,2,0,0,8,0,2,0,0,0,0,0,0,1,18,0,0,0,0,0,0,17,0,15,0,0,0,12,0,20,5,6,0,0,7,0,0,6,1,2,0,0,16,0,0,0,0,0,0,0,0,0,0],"split_type":[0,0,0,0,0,0,0,0,0,0,0,0,0,0,0,0,0,0,0,0,0,0,0,0,0,0,0,0,0,0,0,0,0,0,0,0,0,0,0,0,0,0,0,0,0,0,0,0,0,0,0,0,0,0,0,0,0,0,0,0,0],"sum_hessian":[2.31E2,4E0,2.27E2,1E0,3E0,1E0,2.26E2,2.11E2,1.5E1,2.08E2,3E0,3E0,1.2E1,1E0,2.07E2,1E0,2E0,2E0,1E0,5E0,7E0,1.31E2,7.6E1,1E0,1E0,1E0,4E0,2E0,5E0,1E2,3.1E1,7.5E1,1E0,1E0,1E0,9.8E1,2E0,1E1,2.1E1,7.4E1,1E0,1E0,9.7E1,1E0,1E0,7E0,3E0,1.8E1,3E0,2E0,7.2E1,9.1E1,6E0,3E0,4E0,1E0,2E0,4E0,1.4E1,1E0,7.1E1],"tree_param":{"num_deleted":"0","num_feature":"22","num_nodes":"61","size_leaf_vector":"1"}},{"base_weights":[-1.4717301E1,2.9499373E4,-6.7052057E2,-3.0592823E1,1.8590072E3,-1.1051613E3,9.5524146E2,1.153257E1,-1.2962506E3,-2.4260928E2,4.1988867E3,1.9786166E3,-7.758776E2,1.6371387E1,-1.3091719E3,-4.688132E3,1.5677826E2,1.4311908E3,8.340962E3,2.7713447E3,-2.6637875E2,-1.0632722E3,1.1711548E2,-1.3534949E3,-7.3455054E2,-6.5539635E1,-2.8607025E2,-6.347421E2,1.2016869E3,4.7233623E3,-1.8419565E2,1.1977197E2,4.6142413E2,6.0051983E1,1.6281187E2,-4.2797646E1,2.2819239E1,-1.3028928E3,-1.3175586E2,-1.1149376E3,-1.4595024E3,-1.0987744E2,-9.109647E2,9.5622656E2,-1.0922484E3,1.2222422E2,5.275346E2,7.311906E1,2.8113312E2,-5.95585E1,8.688276E2,-7.002093E1,-2.2299177E1,1.6146594E2,-3.2616077E1,-2.8955774E2,-1.2286625E3,-1.7419815E1,-7.338964E1,-1.1925659E1,6.900745E0,-7.4302306E0,-1.0829791E3,-4.980249E0,6.2254284E1,3.5206372E2,-1.452633E3,8.615623E2,-3.2519665E1,5.1839436E1,9.123609E0,9.791199E0,1.4597962E0,-4.2189175E1,1.0088924E2,-1.3262246E3,-4.3851285E2,-1.6244688E1,-5.7243183E1,3.6885696E1,-2.0122175E1,-2.9110767E1,-8.277685E1,1.0152935E3,-9.207184E0,1.2719501E1,-8.6241295E1,-1.4615939E1,-1.3474128E3,3.663789E1,-4.0965927E1,5.6494595E1,2.2383282E1,8.2664186E-1,-7.294739E0,-2.5132732E1,-6.9168915E1],"categories":[],"categories_nodes":[],"categories_segments":[],"categories_sizes":[],"default_left":[0,0,0,0,0,0,0,0,0,0,0,0,0,0,0,0,0,0,0,0,0,0,0,0,0,0,0,0,0,0,0,0,0,0,0,0,0,0,0,0,0,0,0,0,0,0,0,0,0,0,0,0,0,0,0,0,0,0,0,0,0,0,0,0,0,0,0,0,0,0,0,0,0,0,0,0,0,0,0,0,0,0,0,0,0,0,0,0,0,0,0,0,0,0,0,0,0],"id":14,"left_children":[1,3,5,-1,-1,7,9,11,13,15,17,19,21,-1,23,25,27,29,31,33,35,37,-1,39,41,-1,-1,43,45,47,49,-1,-1,-1,-1,-1,-1,51,53,55,57,59,61,63,65,-1,67,-1,-1,-1,69,-1,-1,71,-1,73,75,-1,-1,-1,-1,-1,77,-1,-1,79,81,83,-1,-1,-1,-1,-1,-1,85,87,89,-1,-1,-1,-1,-1,-1,91,-1,-1,93,-1,95,-1,-1,-1,-1,-1,-1,-1,-1],"loss_changes":[4.452175E9,1.179136E9,1.6004576E8,0E0,0E0,3.799803E7,1.87518E8,4.335552E7,3.617616E6,6.46525E7,1.3709454E8,1.4975596E7,2.0413514E7,0E0,2.8516E6,2.969564E6,2.888302E7,4.8733184E7,4.277568E6,6.57704E5,1.6690119E6,4.069336E6,0E0,1.887904E6,1.3325205E6,0E0,0E0,1.5602001E7,1.127797E7,5.75328E5,8.457493E6,0E0,0E0,0E0,0E0,0E0,0E0,6.28998E5,8.6853375E5,4.055948E6,3.4528E5,1.6046962E5,1.150434E6,1.64895E6,8.839548E6,0E0,4.88842E6,0E0,0E0,0E0,2.7193875E5,0E0,0E0,1.2460891E4,0E0,1.599899E6,2.579064E6,0E0,0E0,0E0,0E0,0E0,3.351E3,0E0,0E0,1.4607916E6,1.332062E6,1.633779E6,0E0,0E0,0E0,0E0,0E0,0E0,1.6556233E5,3.94764E5,3.2765215E6,0E0,0E0,0E0,0E0,0E0,0E0,1.458E4,0E0,0E0,2.0804557E4,0E0,3.68012E5,0E0,0E0,0E0,0E0,0E0,0E0,0E0,0E0],"parents":[2147483647,0,0,1,1,2,2,5,5,6,6,7,7,8,8,9,9,10,10,11,11,12,12,14,14,15,15,16,16,17,17,18,18,19,19,20,20,21,21,23,23,24,24,27,27,28,28,29,29,30,30,37,37,38,38,39,39,40,40,41,41,42,42,43,43,44,44,46,46,50,50,53,53,55,55,56,56,62,62,65,65,66,66,67,67,74,74,75,75,76,76,83,83,86,86,88,88],"right_children":[2,4,6,-1,-1,8,10,12,14,16,18,20,22,-1,24,26,28,30,32,34,36,38,-1,40,42,-1,-1,44,46,48,50,-1,-1,-1,-1,-1,-1,52,54,56,58,60,62,64,66,-1,68,-1,-1,-1,70,-1,-1,72,-1,74,76,-1,-1,-1,-1,-1,78,-1,-1,80,82,84,-1,-1,-1,-1,-1,-1,86,88,90,-1,-1,-1,-1,-1,-1,92,-1,-1,94,-1,96,-1,-1,-1,-1,-1,-1,-1,-1],"split_conditions":[-1.0897419E1,-2.7884312E1,3.6219149E0,-3.0592823E1,1.8590072E3,-2.2625492E0,5.410859E-1,-3.8726667E-1,-8.895264E-1,-1.4918797E0,5.856296E-1,-6.834186E-2,-2.354262E0,1.6371387E1,4.9568895E-1,-1.8934254E1,2.7123812E-1,6.567146E-1,3.56344E-1,-5.1483307E0,4.886694E0,-1.4745787E0,1.1711548E2,-1.7622754E-1,-7.7108204E-1,-6.5539635E1,-2.8607025E2,-2.0756023E0,-2.3398001E-1,-5.4649498E1,-5.462903E-1,1.1977197E2,4.6142413E2,6.0051983E1,1.6281187E2,-4.2797646E1,2.2819239E1,4.210657E-1,1.8387315E0,-3.258998E-1,-9.090453E-1,-1.0389049E0,-5.6974226E-1,-2.6952415E1,-4.186492E-1,1.2222422E2,3.3163336E-1,7.311906E1,2.8113312E2,-5.95585E1,1.5236683E1,-7.002093E1,-2.2299177E1,-1.8109943E1,-3.2616077E1,-3.8060072E-1,4.34302E-1,-1.7419815E1,-7.338964E1,-1.1925659E1,6.900745E0,-7.4302306E0,-1.8816156E1,-4.980249E0,6.2254284E1,8.453178E0,-7.579654E-2,4.6270484E-1,-3.2519665E1,5.1839436E1,9.123609E0,9.791199E0,1.4597962E0,-4.2189175E1,-8.096346E-1,-1.0386807E0,5.207863E-1,-1.6244688E1,-5.7243183E1,3.6885696E1,-2.0122175E1,-2.9110767E1,-8.277685E1,1.6609536E-1,-9.207184E0,1.2719501E1,-8.895706E0,-1.4615939E1,-8.749764E-1,3.663789E1,-4.0965927E1,5.6494595E1,2.2383282E1,8.2664186E-1,-7.294739E0,-2.5132732E1,-6.9168915E1],"split_indices":[2,0,1,0,0,2,3,14,17,2,6,4,2,0,15,0,5,3,0,2,0,1,0,18,2,0,0,3,12,0,5,0,0,0,0,0,0,12,1,19,13,2,11,0,13,0,9,0,0,0,0,0,0,0,0,5,16,0,0,0,0,0,0,0,0,0,6,6,0,0,0,0,0,0,4,6,4,0,0,0,0,0,0,13,0,0,0,0,12,0,0,0,0,0,0,0,0],"split_type":[0,0,0,0,0,0,0,0,0,0,0,0,0,0,0,0,0,0,0,0,0,0,0,0,0,0,0,0,0,0,0,0,0,0,0,0,0,0,0,0,0,0,0,0,0,0,0,0,0,0,0,0,0,0,0,0,0,0,0,0,0,0,0,0,0,0,0,0,0,0,0,0,0,0,0,0,0,0,0,0,0,0,0,0,0,0,0,0,0,0,0,0,0,0,0,0,0],"sum_hessian":[2.28E2,4E0,2.24E2,1E0,3E0,1.77E2,4.7E1,2.6E1,1.51E2,3.5E1,1.2E1,7E0,1.9E1,1E0,1.5E2,2E0,3.3E1,8E0,4E0,5E0,2E0,1.8E1,1E0,1.38E2,1.2E1,1E0,1E0,1.9E1,1.4E1,2E0,6E0,1E0,3E0,2E0,3E0,1E0,1E0,1.4E1,4E0,4.6E1,9.2E1,3E0,9E0,4E0,1.5E1,4E0,1E1,1E0,1E0,3E0,3E0,1.2E1,2E0,3E0,1E0,6E0,4E1,1E0,9.1E1,2E0,1E0,2E0,7E0,1E0,3E0,3E0,1.2E1,8E0,2E0,2E0,1E0,2E0,1E0,2E0,4E0,3.5E1,5E0,1E0,6E0,2E0,1E0,3E0,9E0,7E0,1E0,2E0,2E0,1E0,3.4E1,1E0,4E0,5E0,2E0,1E0,1E0,2E0,3.2E1],"tree_param":{"num_deleted":"0","num_feature":"22","num_nodes":"97","size_leaf_vector":"1"}},{"base_weights":[2.8581085E2,2.8390086E4,-3.1592926E2,-2.9828003E1,1.7892943E3,-7.006026E2,2.427472E3,2.5455056E3,-8.7920764E2,5.194091E2,6.6098994E3,-1.4733284E3,4.9733984E2,-1.075672E3,-2.6786203E2,-6.780873E1,1.5540706E3,4.8846808E2,2.182326E2,-2.789185E2,-8.9983955E1,-2.0776282E2,-1.1719944E3,-1.2039364E3,4.771914E2,1.9703594E3,-6.291081E2,-3.4515255E1,3.755901E1,7.52889E1,-5.1472218E1,-8.069399E2,9.253556E2,-1.1958188E3,4.932101E1,-1.3638617E3,5.3862392E1,1.481854E3,-6.333179E2,2.373486E3,-3.0182455E1,-5.5741383E1,8.558276E0,-5.121286E1,-3.413077E2,-5.0971512E2,1.7703198E3,-1.212106E3,2.3444593E1,-1.4966964E3,3.232083E1,3.1328179E3,3.430903E2,4.456792E1,-8.191667E2,1.3624706E2,5.8253407E1,-2.001891E1,1.7755224E1,-3.024347E0,-1.981956E1,3.4990692E0,-4.1727703E1,1.0168188E2,2.4509169E1,-1.2513201E3,-4.5277386E2,1.6997778E1,-1.6112548E3,2.100336E2,3.3236996E1,-8.7010095E2,9.873295E2,1.1668195E1,-9.263245E2,1.5962104E1,-1.2666843E3,4.4345783E1,-7.708603E2,-8.310405E1,-1.740959E1,-5.1208656E1,-1.0197107E1,6.8644165E1,3.5494342E2,-1.8095196E1,-5.0150917E1,-5.1721424E1,-6.892958E1,-3.0171418E0,-4.3961136E1,1.4233032E0,2.2714025E1],"categories":[],"categories_nodes":[],"categories_segments":[],"categories_sizes":[],"default_left":[0,0,0,0,0,0,0,0,0,0,0,0,0,0,0,0,0,0,0,0,0,0,0,0,0,0,0,0,0,0,0,0,0,0,0,0,0,0,0,0,0,0,0,0,0,0,0,0,0,0,0,0,0,0,0,0,0,0,0,0,0,0,0,0,0,0,0,0,0,0,0,0,0,0,0,0,0,0,0,0,0,0,0,0,0,0,0,0,0,0,0,0,0],"id":15,"left_children":[1,3,5,-1,-1,7,9,11,13,15,17,19,-1,21,23,-1,25,-1,27,-1,29,31,33,35,37,39,41,-1,-1,-1,-1,43,45,47,-1,49,-1,51,53,55,57,-1,-1,-1,59,61,63,65,-1,67,-1,69,71,-1,73,-1,-1,-1,-1,-1,-1,-1,-1,-1,-1,75,77,-1,79,-1,-1,81,83,-1,85,-1,87,-1,89,-1,-1,-1,-1,-1,91,-1,-1,-1,-1,-1,-1,-1,-1],"loss_changes":[4.033899E9,1.093246E9,2.48644E8,0E0,0E0,1.21670904E8,2.2799648E8,3.4184506E8,2.3252976E7,4.2860068E7,1.7961606E8,4.4927524E7,0E0,1.2129168E7,3.4748356E7,0E0,1.3963228E7,0E0,2.455355E6,0E0,1.2044202E7,1.1609724E7,8.018864E6,9.495236E6,3.2177722E7,9.7493E6,1.3569456E6,0E0,0E0,0E0,0E0,7.635025E5,8.177858E6,4.147264E6,0E0,6.57522E6,0E0,2.7126024E7,4.697201E6,1.0723E6,5.700708E5,0E0,0E0,0E0,5.3366375E4,6.2332725E5,3.51475E5,3.334176E6,0E0,4.755828E6,0E0,1.3020932E7,8.67493E6,0E0,1.682401E6,0E0,0E0,0E0,0E0,0E0,0E0,0E0,0E0,0E0,0E0,3.39656E6,4.0927848E6,0E0,6.41016E5,0E0,0E0,2.0167425E5,1.219436E6,0E0,1.56454E5,0E0,1.770848E6,0E0,4.8589875E5,0E0,0E0,0E0,0E0,0E0,1.1679369E5,0E0,0E0,0E0,0E0,0E0,0E0,0E0,0E0],"parents":[2147483647,0,0,1,1,2,2,5,5,6,6,7,7,8,8,9,9,10,10,11,11,13,13,14,14,16,16,18,18,20,20,21,21,22,22,23,23,24,24,25,25,26,26,31,31,32,32,33,33,35,35,37,37,38,38,39,39,40,40,44,44,45,45,46,46,47,47,49,49,51,51,52,52,54,54,65,65,66,66,68,68,71,71,72,72,74,74,76,76,78,78,84,84],"right_children":[2,4,6,-1,-1,8,10,12,14,16,18,20,-1,22,24,-1,26,-1,28,-1,30,32,34,36,38,40,42,-1,-1,-1,-1,44,46,48,-1,50,-1,52,54,56,58,-1,-1,-1,60,62,64,66,-1,68,-1,70,72,-1,74,-1,-1,-1,-1,-1,-1,-1,-1,-1,-1,76,78,-1,80,-1,-1,82,84,-1,86,-1,88,-1,90,-1,-1,-1,-1,-1,92,-1,-1,-1,-1,-1,-1,-1,-1],"split_conditions":[-1.0897419E1,-2.7884312E1,5.7796855E0,-2.9828003E1,1.7892943E3,-3.8142953E0,6.004095E-1,2.6096538E-1,1.6157484E0,-6.976523E-1,2.583173E-1,-1.0847051E1,4.9733984E2,-5.2027506E-1,-5.7636932E-3,-6.780873E1,4.3651924E-2,4.8846808E2,-5.4649498E1,-2.789185E2,-4.117148E-1,3.8814795E-1,9.8611265E-1,3.3467817E-1,7.300073E-1,4.248158E-1,-1.7172445E1,-3.4515255E1,3.755901E1,7.52889E1,-5.1472218E1,-1.4060757E-1,-1.0720394E-1,9.641829E-1,4.932101E1,1.6856914E0,5.3862392E1,-6.9813676E-2,-6.077192E-1,1.8800189E-1,-3.626409E1,-5.5741383E1,8.558276E0,-5.121286E1,-2.37812E1,-3.82109E1,-4.0258837E0,5.721839E-1,2.3444593E1,-2.034319E0,3.232083E1,-3.6157098E0,-3.166027E-1,4.456792E1,-8.4192574E-1,1.3624706E2,5.8253407E1,-2.001891E1,1.7755224E1,-3.024347E0,-1.981956E1,3.4990692E0,-4.1727703E1,1.0168188E2,2.4509169E1,-9.2039526E-1,-3.229713E0,1.6997778E1,6.9651234E-1,2.100336E2,3.3236996E1,1.092802E1,-9.476548E0,1.1668195E1,-4.827228E-1,1.5962104E1,-1.2172396E-1,4.4345783E1,-2.9488463E0,-8.310405E1,-1.740959E1,-5.1208656E1,-1.0197107E1,6.8644165E1,1.8387315E0,-1.8095196E1,-5.0150917E1,-5.1721424E1,-6.892958E1,-3.0171418E0,-4.3961136E1,1.4233032E0,2.2714025E1],"split_indices":[2,0,1,0,0,2,3,4,1,4,16,2,0,14,10,0,17,0,0,0,5,5,6,14,2,11,0,0,0,0,0,5,8,12,0,4,0,21,4,16,0,0,0,0,0,0,1,15,0,4,0,0,16,0,20,0,0,0,0,0,0,0,0,0,0,16,2,0,5,0,0,0,0,0,14,0,6,0,0,0,0,0,0,0,1,0,0,0,0,0,0,0,0],"split_type":[0,0,0,0,0,0,0,0,0,0,0,0,0,0,0,0,0,0,0,0,0,0,0,0,0,0,0,0,0,0,0,0,0,0,0,0,0,0,0,0,0,0,0,0,0,0,0,0,0,0,0,0,0,0,0,0,0,0,0,0,0,0,0,0,0,0,0,0,0,0,0,0,0,0,0,0,0,0,0,0,0,0,0,0,0,0,0,0,0,0,0,0,0],"sum_hessian":[2.37E2,4E0,2.33E2,1E0,3E0,2.05E2,2.8E1,1E1,1.95E2,2E1,8E0,7E0,3E0,1.47E2,4.8E1,7E0,1.3E1,5E0,3E0,1E0,6E0,1.5E1,1.32E2,2.1E1,2.7E1,1.1E1,2E0,1E0,2E0,2E0,4E0,1E1,5E0,1.31E2,1E0,2E1,1E0,1.4E1,1.3E1,9E0,2E0,1E0,1E0,6E0,4E0,2E0,3E0,1.3E2,1E0,1.9E1,1E0,5E0,9E0,1E0,1.2E1,6E0,3E0,1E0,1E0,1E0,3E0,1E0,1E0,2E0,1E0,1.23E2,7E0,1E0,1.8E1,3E0,2E0,3E0,6E0,1E0,1.1E1,1E0,1.22E2,1E0,6E0,1.7E1,1E0,2E0,1E0,3E0,3E0,2E0,9E0,4.3E1,7.9E1,1E0,5E0,1E0,2E0],"tree_param":{"num_deleted":"0","num_feature":"22","num_nodes":"93","size_leaf_vector":"1"}},{"base_weights":[2.5323657E2,2.587755E4,-4.4675946E2,-2.90823E1,3.128572E4,-1.099073E3,1.059256E3,4.6632324E2,1.7221959E3,-1.1188285E3,4.808799E1,3.8303848E2,4.875392E3,2.9589337E2,-1.1490956E3,-3.7527875E2,1.6409794E3,4.5391714E2,-1.1432274E3,-1.7165577E1,3.1169943E1,-1.1704497E3,2.874071E2,-8.215988E2,1.1045613E3,-4.6255087E2,2.8760361E3,-9.807929E0,-6.654775E1,-3.9846817E2,-1.2117167E3,-8.93486E0,3.0490393E1,-1.4003646E3,-1.8805968E2,-5.4421795E1,7.21737E1,-6.727499E1,2.5645405E1,3.611678E3,-5.1260536E1,-9.621689E2,5.4669995E2,-1.285937E3,-8.534636E2,-3.462207E0,-7.452493E1,6.0349953E1,-6.374076E2,1.0063647E1,-1.4145282E1,2.2208736E2,1.5612322E3,-5.2495483E1,-1.3086624E1,7.6219034E0,4.323714E1,-3.2859106E2,-1.308851E3,9.994253E1,-1.0746897E3,1.0607753E3,-1.0831217E3,8.966619E1,1.582165E1,-3.78874E1,2.3971998E1,-1.4010065E3,-1.0258365E3,-3.144418E2,6.191408E2,-1.0413861E1,-1.1060295E3,6.940885E1,1.0149292E1,-1.209275E1,-5.7486153E1,-1.2957504E1,-7.060201E1,-5.4578987E1,-2.4187174E0,-5.5538983E0,-2.3113333E1,3.976006E1,6.6755004E0,-6.0026356E1,-2.8176584E1],"categories":[],"categories_nodes":[],"categories_segments":[],"categories_sizes":[],"default_left":[0,0,0,0,0,0,0,0,0,0,0,0,0,0,0,0,0,0,0,0,0,0,0,0,0,0,0,0,0,0,0,0,0,0,0,0,0,0,0,0,0,0,0,0,0,0,0,0,0,0,0,0,0,0,0,0,0,0,0,0,0,0,0,0,0,0,0,0,0,0,0,0,0,0,0,0,0,0,0,0,0,0,0,0,0,0,0],"id":16,"left_children":[1,3,5,-1,7,9,11,-1,-1,13,-1,15,17,19,21,23,25,-1,27,-1,-1,29,31,33,35,37,39,-1,-1,41,43,-1,-1,45,47,49,-1,-1,-1,51,-1,53,55,57,59,-1,-1,-1,61,-1,-1,-1,63,-1,-1,-1,-1,65,67,69,71,73,75,-1,-1,-1,-1,77,79,81,83,-1,85,-1,-1,-1,-1,-1,-1,-1,-1,-1,-1,-1,-1,-1,-1],"loss_changes":[4.047368E9,8.7677235E8,2.1729091E8,0E0,2.551808E7,7.345824E6,1.710286E8,0E0,0E0,6.891376E6,0E0,5.594309E7,2.6333824E8,1.0513925E6,4.937696E6,2.5345352E7,5.848585E7,0E0,6.27877E5,0E0,0E0,4.232064E6,5.597881E5,1.0370102E7,3.613702E6,8.441641E6,4.3881624E7,0E0,0E0,5.3211455E6,2.62504E6,0E0,0E0,1.69648E6,1.0172351E7,2.3220762E5,0E0,0E0,0E0,1.3489536E7,0E0,9.3946E4,3.69749E5,2.070688E6,5.802202E6,0E0,0E0,0E0,1.0231796E7,0E0,0E0,0E0,8.77071E5,0E0,0E0,0E0,0E0,1.7503834E6,1.457824E6,1.4855695E6,3.67008E5,5.60745E5,2.82228E5,0E0,0E0,0E0,0E0,6.54592E5,1.939298E6,6.890128E4,1.5033375E5,0E0,4.00026E5,0E0,0E0,0E0,0E0,0E0,0E0,0E0,0E0,0E0,0E0,0E0,0E0,0E0,0E0],"parents":[2147483647,0,0,1,1,2,2,4,4,5,5,6,6,9,9,11,11,12,12,13,13,14,14,15,15,16,16,18,18,21,21,22,22,23,23,24,24,25,25,26,26,29,29,30,30,33,33,34,34,35,35,39,39,41,41,42,42,43,43,44,44,48,48,52,52,57,57,58,58,59,59,60,60,61,61,62,62,67,67,68,68,69,69,70,70,72,72],"right_children":[2,4,6,-1,8,10,12,-1,-1,14,-1,16,18,20,22,24,26,-1,28,-1,-1,30,32,34,36,38,40,-1,-1,42,44,-1,-1,46,48,50,-1,-1,-1,52,-1,54,56,58,60,-1,-1,-1,62,-1,-1,-1,64,-1,-1,-1,-1,66,68,70,72,74,76,-1,-1,-1,-1,78,80,82,84,-1,86,-1,-1,-1,-1,-1,-1,-1,-1,-1,-1,-1,-1,-1,-1],"split_conditions":[-9.142882E0,-2.7884312E1,1.6290994E0,-2.90823E1,6.8163967E0,9.8611265E-1,6.787308E-1,4.6632324E2,1.7221959E3,-5.3337183E0,4.808799E1,2.9533522E-2,-1.4040184E0,-3.976947E0,8.640003E-1,4.876512E-1,-1.4624032E-1,4.5391714E2,5.3333536E-2,-1.7165577E1,3.1169943E1,-5.654554E-1,-1.5306443E1,5.2463975E-2,3.18656E0,-4.436462E-1,5.5823624E-1,-9.807929E0,-6.654775E1,-5.5701965E-3,3.6427057E-1,-8.93486E0,3.0490393E1,-2.0942578E0,1.6453055E-1,-1.8816156E1,7.21737E1,-6.727499E1,2.5645405E1,2.5343394E-1,-5.1260536E1,2.2126179E0,1.5444142E1,-6.5477985E-1,4.8997328E-1,-3.462207E0,-7.452493E1,6.0349953E1,-4.3030497E-1,1.0063647E1,-1.4145282E1,2.2208736E2,-2.182292E0,-5.2495483E1,-1.3086624E1,7.6219034E0,4.323714E1,5.093562E-1,2.6802158E-1,-2.9488463E0,-7.1909964E-1,-5.4649498E1,-4.827228E-1,8.966619E1,1.582165E1,-3.78874E1,2.3971998E1,-1.0386807E0,6.561885E-1,-3.664025E-1,-4.4720554E-1,-1.0413861E1,2.0382895E-1,6.940885E1,1.0149292E1,-1.209275E1,-5.7486153E1,-1.2957504E1,-7.060201E1,-5.4578987E1,-2.4187174E0,-5.5538983E0,-2.3113333E1,3.976006E1,6.6755004E0,-6.0026356E1,-2.8176584E1],"split_indices":[2,0,1,0,1,6,6,0,0,3,0,11,2,1,8,5,7,0,2,0,0,9,0,10,1,7,7,0,0,15,13,0,0,3,10,0,0,0,0,9,0,2,0,15,13,0,0,0,8,0,0,0,0,0,0,0,0,1,15,0,11,0,14,0,0,0,0,6,10,2,0,0,8,0,0,0,0,0,0,0,0,0,0,0,0,0,0],"split_type":[0,0,0,0,0,0,0,0,0,0,0,0,0,0,0,0,0,0,0,0,0,0,0,0,0,0,0,0,0,0,0,0,0,0,0,0,0,0,0,0,0,0,0,0,0,0,0,0,0,0,0,0,0,0,0,0,0,0,0,0,0,0,0,0,0,0,0,0,0,0,0,0,0,0,0,0,0,0,0,0,0,0,0,0,0,0,0],"sum_hessian":[2.24E2,5E0,2.19E2,1E0,4E0,1.53E2,6.6E1,1E0,3E0,1.52E2,1E0,5.7E1,9E0,3E0,1.49E2,3.6E1,2.1E1,5E0,4E0,1E0,2E0,1.47E2,2E0,2.8E1,8E0,8E0,1.3E1,1E0,3E0,8E0,1.39E2,1E0,1E0,1.4E1,1.4E1,2E0,6E0,4E0,4E0,1.1E1,2E0,5E0,3E0,1.13E2,2.6E1,1E0,1.3E1,3E0,1.1E1,1E0,1E0,7E0,4E0,4E0,1E0,2E0,1E0,3E0,1.1E2,5E0,2.1E1,2E0,9E0,3E0,1E0,2E0,1E0,8E1,3E1,3E0,2E0,1E0,2E1,1E0,1E0,1E0,8E0,1E0,7.9E1,2.8E1,2E0,2E0,1E0,1E0,1E0,1.6E1,4E0],"tree_param":{"num_deleted":"0","num_feature":"22","num_nodes":"87","size_leaf_vector":"1"}},{"base_weights":[5.457302E2,2.200382E4,-3.4675153E2,3.713676E4,-6.196545E3,-4.8478088E2,4.588078E3,4.5466513E2,2.0463397E3,-2.8355244E1,-3.9419952E2,-1.01579156E3,1.2010895E2,-2.3703645E2,3.5299472E2,-1.2800339E3,-7.6104346E2,-6.305839E2,1.3104384E3,-6.466353E1,4.688579E1,2.0875433E1,-1.3199407E3,-8.030274E1,-1.028306E3,4.8608258E2,-8.809646E2,-7.812772E1,3.3113853E3,-6.702691E1,-2.6490082E1,-9.5331036E2,5.619122E2,-1.0812216E3,-2.4207385E2,1.4054597E3,-6.6753784E2,7.5532166E1,-9.590096E2,4.283922E2,-1.1447167E3,8.741698E2,5.109867E3,-5.273293E1,-6.096826E0,1.1855413E3,-4.235511E2,-6.648091E2,-1.18067E3,2.466786E1,-3.2583496E1,9.812225E1,4.971093E2,-1.1836884E0,-3.9578793E1,-1.0266974E3,7.607391E1,9.314428E2,-4.8260887E1,-1.4141998E1,-6.924345E1,2.6525912E2,9.003006E1,-3.1939755E2,6.706714E3,9.171268E1,2.4044373E2,1.1426758E1,-3.218532E1,1.23649235E1,-7.93632E2,-3.2151028E1,-6.2966633E1,3.221045E0,3.099326E1,-4.6694232E2,-1.1469829E3,-3.7036324E1,2.9762476E1,1.3733268E3,-4.996397E1,-2.1760096E1,2.4619585E1,-6.361031E1,3.9655495E1,3.579227E2,9.990688E1,2.2921394E1,-1.033772E1,-4.4737392E1,-1.4657557E1,-8.650274E2,1.732211E1,-6.5187197E0,-1.1709353E3,1.4594049E3,1.2813642E1,-1.1521869E1,-4.661931E1,-5.94712E1,-1.2633567E1,2.992037E1,7.999267E1],"categories":[],"categories_nodes":[],"categories_segments":[],"categories_sizes":[],"default_left":[0,0,0,0,0,0,0,0,0,0,0,0,0,0,0,0,0,0,0,0,0,0,0,0,0,0,0,0,0,0,0,0,0,0,0,0,0,0,0,0,0,0,0,0,0,0,0,0,0,0,0,0,0,0,0,0,0,0,0,0,0,0,0,0,0,0,0,0,0,0,0,0,0,0,0,0,0,0,0,0,0,0,0,0,0,0,0,0,0,0,0,0,0,0,0,0,0,0,0,0,0,0,0],"id":17,"left_children":[1,3,5,7,9,11,13,-1,-1,-1,-1,15,17,19,-1,21,23,25,27,-1,-1,-1,29,31,33,35,37,39,41,-1,-1,43,45,47,49,51,53,-1,55,57,59,61,63,-1,-1,65,67,69,71,-1,-1,-1,73,-1,-1,75,77,79,-1,-1,-1,81,-1,83,85,-1,87,-1,-1,-1,89,-1,-1,-1,-1,91,93,-1,-1,95,-1,-1,-1,-1,-1,-1,-1,-1,-1,-1,-1,97,-1,-1,99,101,-1,-1,-1,-1,-1,-1,-1],"loss_changes":[4.3165947E9,4.0709094E9,1.5003408E8,2.6555443E8,3.3526448E7,6.821702E7,7.323425E7,0E0,0E0,0E0,0E0,6.632472E6,9.018353E7,4.93516E6,0E0,4.209208E6,1.0833616E7,1.7762906E7,1.0861814E8,0E0,0E0,0E0,1.5236E5,1.0627529E7,1.527232E6,1.3665543E7,1.0968032E7,1.3456352E7,6.566571E7,0E0,0E0,5.454645E5,7.262337E6,8.71544E5,1.5264248E6,2.566017E6,4.6044225E5,0E0,3.581228E6,1.2817002E7,1.264157E6,4.0352865E6,8.016942E7,0E0,0E0,3.85064E6,8.649109E5,1.3712675E6,5.01304E5,0E0,0E0,0E0,1.7252781E5,0E0,0E0,2.628956E6,2.1371682E6,1.2463354E7,0E0,0E0,0E0,1.1688749E6,0E0,4.189019E6,5.85824E5,0E0,4.8471044E5,0E0,0E0,0E0,1.93162E5,0E0,0E0,0E0,0E0,3.537644E6,7.72644E5,0E0,0E0,6.83688E5,0E0,0E0,0E0,0E0,0E0,0E0,0E0,0E0,0E0,0E0,0E0,8.436E4,0E0,0E0,3.27636E5,2.51894E5,0E0,0E0,0E0,0E0,0E0,0E0,0E0],"parents":[2147483647,0,0,1,1,2,2,3,3,4,4,5,5,6,6,11,11,12,12,13,13,15,15,16,16,17,17,18,18,22,22,23,23,24,24,25,25,26,26,27,27,28,28,31,31,32,32,33,33,34,34,35,35,36,36,38,38,39,39,40,40,41,41,42,42,45,45,46,46,47,47,48,48,52,52,55,55,56,56,57,57,61,61,63,63,64,64,66,66,70,70,75,75,76,76,79,79,91,91,94,94,95,95],"right_children":[2,4,6,8,10,12,14,-1,-1,-1,-1,16,18,20,-1,22,24,26,28,-1,-1,-1,30,32,34,36,38,40,42,-1,-1,44,46,48,50,52,54,-1,56,58,60,62,64,-1,-1,66,68,70,72,-1,-1,-1,74,-1,-1,76,78,80,-1,-1,-1,82,-1,84,86,-1,88,-1,-1,-1,90,-1,-1,-1,-1,92,94,-1,-1,96,-1,-1,-1,-1,-1,-1,-1,-1,-1,-1,-1,98,-1,-1,100,102,-1,-1,-1,-1,-1,-1,-1],"split_conditions":[-9.142882E0,1.00547E0,8.274649E-1,6.8163967E0,-2.7884312E1,1.6011585E-1,-7.783827E-2,4.5466513E2,2.0463397E3,-2.8355244E1,-3.9419952E2,-5.5106573E-2,1.5740384E0,-3.394955E1,3.5299472E2,-2.5717154E0,-7.4738705E-1,-4.6986973E-1,2.9533522E-2,-6.466353E1,4.688579E1,2.0875433E1,6.2488526E-1,-3.1353086E-1,7.6839514E0,4.98312E-2,-5.156086E0,-1.5808658E-1,-1.958552E-1,-6.702691E1,-2.6490082E1,-6.6686314E-1,-1.7894836E-1,-3.7469617E-1,8.137185E0,-1.6426902E-1,-2.37812E1,7.5532166E1,6.691017E-1,3.2131088E-1,-5.491074E-1,4.9159486E-2,-6.136458E-1,-5.273293E1,-6.096826E0,-1.7226219E-1,-1.8109943E1,-4.7252345E0,-2.3559114E1,2.466786E1,-3.2583496E1,9.812225E1,-3.82109E1,-1.1836884E0,-3.9578793E1,-2.0240902E1,-1.8997358E1,8.824551E0,-4.8260887E1,-1.4141998E1,-6.924345E1,-3.626409E1,9.003006E1,-1.7583942E1,4.544596E-1,9.171268E1,-1.3087453E0,1.1426758E1,-3.218532E1,1.23649235E1,2.2339946E-1,-3.2151028E1,-6.2966633E1,3.221045E0,3.099326E1,-2.37812E1,-7.700683E-1,-3.7036324E1,2.9762476E1,3.549477E-1,-4.996397E1,-2.1760096E1,2.4619585E1,-6.361031E1,3.9655495E1,3.579227E2,9.990688E1,2.2921394E1,-1.033772E1,-4.4737392E1,-1.4657557E1,-1.5673681E0,1.732211E1,-6.5187197E0,6.9033474E-1,-7.0113474E-1,1.2813642E1,-1.1521869E1,-4.661931E1,-5.94712E1,-1.2633567E1,2.992037E1,7.999267E1],"split_indices":[2,4,6,1,0,5,1,0,0,0,0,7,1,0,0,4,2,14,11,0,0,0,20,11,1,10,2,11,8,0,0,1,16,20,1,7,0,0,21,6,19,4,9,0,0,18,0,1,0,0,0,0,0,0,0,0,0,1,0,0,0,0,0,0,2,0,1,0,0,0,7,0,0,0,0,0,10,0,0,8,0,0,0,0,0,0,0,0,0,0,0,4,0,0,7,6,0,0,0,0,0,0,0],"split_type":[0,0,0,0,0,0,0,0,0,0,0,0,0,0,0,0,0,0,0,0,0,0,0,0,0,0,0,0,0,0,0,0,0,0,0,0,0,0,0,0,0,0,0,0,0,0,0,0,0,0,0,0,0,0,0,0,0,0,0,0,0,0,0,0,0,0,0,0,0,0,0,0,0,0,0,0,0,0,0,0,0,0,0,0,0,0,0,0,0,0,0,0,0,0,0,0,0,0,0,0,0,0,0],"sum_hessian":[2.24E2,8E0,2.16E2,5E0,3E0,2.11E2,5E0,1E0,4E0,1E0,2E0,1.12E2,9.9E1,2E0,3E0,5.3E1,5.9E1,6.1E1,3.8E1,1E0,1E0,1E0,5.2E1,1.7E1,4.2E1,1.1E1,5E1,2.3E1,1.5E1,5E1,2E0,7E0,1E1,3.9E1,3E0,6E0,5E0,1E0,4.9E1,1.6E1,7E0,7E0,8E0,6E0,1E0,6E0,4E0,9E0,3E1,1E0,2E0,3E0,3E0,1E0,4E0,4.6E1,3E0,1.2E1,4E0,2E0,5E0,5E0,2E0,2E0,6E0,3E0,3E0,1E0,3E0,1E0,8E0,5E0,2.5E1,1E0,2E0,9E0,3.7E1,1E0,2E0,1E1,2E0,1E0,4E0,1E0,1E0,5E0,1E0,2E0,1E0,6E0,2E0,6E0,3E0,1E0,3.6E1,9E0,1E0,1E0,5E0,3.5E1,1E0,2E0,7E0],"tree_param":{"num_deleted":"0","num_feature":"22","num_nodes":"103","size_leaf_vector":"1"}},{"base_weights":[-4.5255777E2,-7.783035E2,1.4240029E3,-8.474964E2,4.186246E3,3.2723712E2,5.920999E3,-7.935491E2,-2.949702E2,2.6825482E2,4.571365E1,9.747335E2,-2.425204E3,-4.7458256E1,4.429449E2,9.9391724E2,-8.624581E2,-5.923222E2,1.5007681E3,-1.9217911E2,-6.864061E1,-4.5264946E1,1.1572534E2,-9.389958E2,6.550415E2,-5.110136E1,4.9647686E1,2.4438643E3,5.927106E2,-2.8922964E2,-1.0328925E3,1.6531522E3,-6.277063E1,1.350161E2,5.154205E1,1.0339325E3,-4.379109E2,1.1651845E2,-6.1834125E2,2.588833E2,-1.0505474E3,2.0652678E1,1.03329056E2,6.33968E1,1.1064063E1,-2.806074E1,-1.6999817E0,7.313685E2,-9.4098376E2,-3.120384E1,5.0620087E1,-1.0871748E3,-3.8875595E2,-3.7929993E1,6.467553E1,-7.1066475E1,-1.0284219E2,2.001012E1,-1.0996753E3,3.4766513E2,-6.1631934E2,1.768501E1,-3.2390484E1,-6.2522625E1,-4.887614E1,2.4657343E1,1.4175415E0,-3.6080463E1,-1.0014993E1],"categories":[],"categories_nodes":[],"categories_segments":[],"categories_sizes":[],"default_left":[0,0,0,0,0,0,0,0,0,0,0,0,0,0,0,0,0,0,0,0,0,0,0,0,0,0,0,0,0,0,0,0,0,0,0,0,0,0,0,0,0,0,0,0,0,0,0,0,0,0,0,0,0,0,0,0,0,0,0,0,0,0,0,0,0,0,0,0,0],"id":18,"left_children":[1,3,5,7,9,11,13,15,-1,-1,-1,17,19,-1,-1,21,23,25,27,-1,-1,-1,-1,29,31,-1,-1,33,35,37,39,41,-1,-1,-1,43,45,-1,47,49,51,-1,-1,-1,-1,-1,-1,53,55,-1,-1,57,59,-1,-1,-1,61,-1,63,65,67,-1,-1,-1,-1,-1,-1,-1,-1],"loss_changes":[1.484272E8,7.431118E7,1.7561989E8,5.0916096E7,6.666336E6,5.5829804E7,1.4969547E8,2.5861264E7,0E0,0E0,0E0,2.1497074E7,3.67962E6,0E0,0E0,2.216E7,2.337968E7,5.783233E6,1.482282E7,0E0,0E0,0E0,0E0,1.1110288E7,2.1143834E7,0E0,0E0,4.77828E5,5.454831E6,2.299447E7,3.989376E6,2.735238E6,0E0,0E0,0E0,1.240736E6,1.8013412E5,0E0,1.0704103E7,2.6277965E6,3.479936E6,0E0,0E0,0E0,0E0,0E0,0E0,5.169127E6,7.503182E6,0E0,0E0,3.266224E6,1.8900976E6,0E0,0E0,0E0,2.2195362E6,0E0,1.558752E6,1.2538203E5,2.0588275E5,0E0,0E0,0E0,0E0,0E0,0E0,0E0,0E0],"parents":[2147483647,0,0,1,1,2,2,3,3,4,4,5,5,6,6,7,7,11,11,12,12,15,15,16,16,17,17,18,18,23,23,24,24,27,27,28,28,29,29,30,30,31,31,35,35,36,36,38,38,39,39,40,40,47,47,48,48,51,51,52,52,56,56,58,58,59,59,60,60],"right_children":[2,4,6,8,10,12,14,16,-1,-1,-1,18,20,-1,-1,22,24,26,28,-1,-1,-1,-1,30,32,-1,-1,34,36,38,40,42,-1,-1,-1,44,46,-1,48,50,52,-1,-1,-1,-1,-1,-1,54,56,-1,-1,58,60,-1,-1,-1,62,-1,64,66,68,-1,-1,-1,-1,-1,-1,-1,-1],"split_conditions":[5.3593802E0,9.8611265E-1,6.156628E-1,1.772313E0,-3.5878341E0,2.4547042E-1,-5.462903E-1,-6.1794037E-1,-2.949702E2,2.6825482E2,4.571365E1,-8.7922305E-1,-1.3452263E1,-4.7458256E1,4.429449E2,-1.470844E-2,4.055708E0,4.7003683E-1,1.417609E0,-1.9217911E2,-6.864061E1,-4.5264946E1,1.1572534E2,-2.2625492E0,1.1785905E0,-5.110136E1,4.9647686E1,8.824551E0,2.8974438E-2,-6.701399E-1,-9.154871E-1,-3.5086226E-1,-6.277063E1,1.350161E2,5.154205E1,4.248158E-1,8.000411E0,1.1651845E2,-3.8726667E-1,-2.5893126E1,1.4672964E0,2.0652678E1,1.03329056E2,6.33968E1,1.1064063E1,-2.806074E1,-1.6999817E0,-2.0058681E-1,-1.4745787E0,-3.120384E1,5.0620087E1,-1.0595273E0,-8.895706E0,-3.7929993E1,6.467553E1,-7.1066475E1,-2.258493E-1,2.001012E1,-1.4876367E-1,-1.2687216E1,-6.9054985E-1,1.768501E1,-3.2390484E1,-6.2522625E1,-4.887614E1,2.4657343E1,1.4175415E0,-3.6080463E1,-1.0014993E1],"split_indices":[1,6,3,5,0,13,5,18,0,0,0,4,2,0,0,11,1,5,2,0,0,0,0,2,2,0,0,1,15,12,9,6,0,0,0,11,1,0,14,0,4,0,0,0,0,0,0,8,1,0,0,15,0,0,0,0,19,0,10,0,3,0,0,0,0,0,0,0,0],"split_type":[0,0,0,0,0,0,0,0,0,0,0,0,0,0,0,0,0,0,0,0,0,0,0,0,0,0,0,0,0,0,0,0,0,0,0,0,0,0,0,0,0,0,0,0,0,0,0,0,0,0,0,0,0,0,0,0,0,0,0,0,0,0,0,0,0,0,0,0,0],"sum_hessian":[2.4E2,2.05E2,3.5E1,2.03E2,2E0,2.9E1,6E0,2.02E2,1E0,1E0,1E0,2.4E1,5E0,2E0,4E0,7E0,1.95E2,6E0,1.8E1,1E0,4E0,3E0,4E0,1.86E2,9E0,5E0,1E0,8E0,1E1,2.4E1,1.62E2,6E0,3E0,6E0,2E0,7E0,3E0,2E0,2.2E1,2E0,1.6E2,2E0,4E0,5E0,2E0,2E0,1E0,4E0,1.8E1,1E0,1E0,1.51E2,9E0,1E0,3E0,1.1E1,7E0,1E0,1.5E2,2E0,7E0,4E0,3E0,6.3E1,8.7E1,1E0,1E0,5E0,2E0],"tree_param":{"num_deleted":"0","num_feature":"22","num_nodes":"69","size_leaf_vector":"1"}},{"base_weights":[1.7740202E2,-6.4922437E2,2.3817408E4,-6.9721816E3,-5.34441E2,1.8633922E3,1.050009E3,-2.6836603E1,-4.4692105E2,6.4083057E3,-6.8840173E2,8.891705E1,-2.8374683E1,7.0880905E1,4.6314453E2,-1.00520325E3,-2.6978946E2,-1.0839294E3,1.6413624E1,-6.5801324E2,7.610876E2,-1.1082388E3,4.3398964E1,1.4760846E2,-5.432732E1,5.1836865E2,-9.060633E2,2.27037E3,-2.602768E2,-1.3430112E3,-9.619898E2,-5.469817E2,1.5096664E3,-1.0167043E3,-6.196242E2,3.0332505E3,-7.750617E2,-7.4835754E2,7.5926416E2,-9.246985E1,-7.016133E1,4.9354584E1,-1.0016678E3,-1.0025532E3,1.9731573E1,1.0580932E2,2.6286493E1,-1.0513391E3,9.217298E0,-2.5200758E2,-1.0000863E3,5.483975E1,1.7149193E2,-1.2220984E1,-4.590864E1,2.4926025E1,-1.0088883E3,1.0695264E1,4.8923367E1,1.5006714E0,-8.43591E0,3.882484E1,-1.0366632E3,-1.4537463E1,-5.5390846E1,-1.1465641E3,-6.5100806E2,-4.2719153E2,1.7877342E1,6.780701E-2,-5.627181E1,1.7318169E1,-2.348465E1,-6.1914455E1,-2.062826E1,-5.3095722E1,-4.6747174E0,-5.8571682E1,-1.001192E1,-4.5734535E1,-1.3405746E0,-2.394978E1,-8.195914E0],"categories":[],"categories_nodes":[],"categories_segments":[],"categories_sizes":[],"default_left":[0,0,0,0,0,0,0,0,0,0,0,0,0,0,0,0,0,0,0,0,0,0,0,0,0,0,0,0,0,0,0,0,0,0,0,0,0,0,0,0,0,0,0,0,0,0,0,0,0,0,0,0,0,0,0,0,0,0,0,0,0,0,0,0,0,0,0,0,0,0,0,0,0,0,0,0,0,0,0,0,0,0,0],"id":19,"left_children":[1,3,5,7,9,-1,11,-1,-1,13,15,-1,-1,-1,-1,17,19,21,23,25,27,29,-1,-1,-1,31,33,35,37,39,41,43,45,47,49,51,53,55,57,59,-1,-1,61,63,-1,-1,-1,65,-1,67,69,-1,-1,-1,-1,71,73,-1,-1,-1,-1,-1,75,-1,-1,77,79,81,-1,-1,-1,-1,-1,-1,-1,-1,-1,-1,-1,-1,-1,-1,-1],"loss_changes":[4.627246E9,1.6247526E8,2.4107203E9,4.5816976E7,2.4598528E8,0E0,5.7215135E6,0E0,0E0,5.8100496E7,2.9169776E7,0E0,0E0,0E0,0E0,1.0151728E7,3.9321276E7,6.51352E6,3.558787E7,2.1187588E7,4.221216E7,2.690928E6,0E0,0E0,0E0,1.4554791E7,1.239848E6,2.790726E7,9.027713E6,3.03292E6,6.78892E6,3.3984442E6,3.064898E6,1.89934E6,2.4053905E6,3.149952E6,3.402875E3,2.4427165E6,5.0796725E5,3.3081258E4,0E0,0E0,5.4098E6,5.25385E4,0E0,0E0,0E0,7.78436E5,0E0,1.3273668E6,1.131302E6,0E0,0E0,0E0,0E0,7.986405E5,7.20298E5,0E0,0E0,0E0,0E0,0E0,1.639312E6,0E0,0E0,4.95008E5,1.6213735E6,4.4231375E4,0E0,0E0,0E0,0E0,0E0,0E0,0E0,0E0,0E0,0E0,0E0,0E0,0E0,0E0,0E0],"parents":[2147483647,0,0,1,1,2,2,3,3,4,4,6,6,9,9,10,10,15,15,16,16,17,17,18,18,19,19,20,20,21,21,25,25,26,26,27,27,28,28,29,29,30,30,31,31,32,32,33,33,34,34,35,35,36,36,37,37,38,38,39,39,42,42,43,43,47,47,49,49,50,50,55,55,56,56,62,62,65,65,66,66,67,67],"right_children":[2,4,6,8,10,-1,12,-1,-1,14,16,-1,-1,-1,-1,18,20,22,24,26,28,30,-1,-1,-1,32,34,36,38,40,42,44,46,48,50,52,54,56,58,60,-1,-1,62,64,-1,-1,-1,66,-1,68,70,-1,-1,-1,-1,72,74,-1,-1,-1,-1,-1,76,-1,-1,78,80,82,-1,-1,-1,-1,-1,-1,-1,-1,-1,-1,-1,-1,-1,-1,-1],"split_conditions":[9.666168E0,-1.0847051E1,-6.3842845E0,-2.7884312E1,-5.9499383E0,1.8633922E3,2.7842543E0,-2.6836603E1,-4.4692105E2,2.6096538E-1,1.364705E-1,8.891705E1,-2.8374683E1,7.0880905E1,4.6314453E2,6.144266E-1,1.6157484E0,1.1730688E0,-3.2885402E-1,-2.367296E0,4.0216064E0,-5.1815164E-1,4.3398964E1,1.4760846E2,-5.432732E1,-1.6730188E-1,1.0553879E-1,1.1785905E0,5.6389923E0,-5.686895E-1,-9.154871E-1,-3.7940254E0,3.162894E-1,6.6124016E-1,7.266614E-2,-4.4893506E-1,-1.781828E1,-4.3793646E-1,1.3151646E1,-1.6772566E0,-7.016133E1,4.9354584E1,-5.1483307E0,-1.2445565E1,1.9731573E1,1.0580932E2,2.6286493E1,2.7119341E-1,9.217298E0,4.0545635E-2,3.0799583E-1,5.483975E1,1.7149193E2,-1.2220984E1,-4.590864E1,1.8226988E1,-2.8338118E-2,1.0695264E1,4.8923367E1,1.5006714E0,-8.43591E0,3.882484E1,5.680832E-1,-1.4537463E1,-5.5390846E1,7.310839E-1,3.9658565E-2,1.5530379E-1,1.7877342E1,6.780701E-2,-5.627181E1,1.7318169E1,-2.348465E1,-6.1914455E1,-2.062826E1,-5.3095722E1,-4.6747174E0,-5.8571682E1,-1.001192E1,-4.5734535E1,-1.3405746E0,-2.394978E1,-8.195914E0],"split_indices":[1,2,0,0,2,0,2,0,0,4,5,0,0,0,0,10,1,9,16,2,0,4,0,0,0,9,8,2,1,10,9,2,18,17,18,17,0,15,0,0,0,0,2,0,0,0,0,15,0,21,5,0,0,0,0,0,7,0,0,0,0,0,15,0,0,14,14,4,0,0,0,0,0,0,0,0,0,0,0,0,0,0,0],"split_type":[0,0,0,0,0,0,0,0,0,0,0,0,0,0,0,0,0,0,0,0,0,0,0,0,0,0,0,0,0,0,0,0,0,0,0,0,0,0,0,0,0,0,0,0,0,0,0,0,0,0,0,0,0,0,0,0,0,0,0,0,0,0,0,0,0,0,0,0,0,0,0,0,0,0,0,0,0,0,0,0,0,0,0],"sum_hessian":[2.35E2,2.28E2,7E0,3E0,2.25E2,4E0,3E0,1E0,2E0,4E0,2.21E2,2E0,1E0,2E0,2E0,1.25E2,9.6E1,1.16E2,9E0,7E1,2.6E1,1.15E2,1E0,2E0,7E0,1.2E1,5.8E1,1E1,1.6E1,4.1E1,7.4E1,6E0,6E0,4E1,1.8E1,8E0,2E0,1.1E1,5E0,2E0,3.9E1,1E0,7.3E1,4E0,2E0,3E0,3E0,3.9E1,1E0,1E1,8E0,2E0,6E0,1E0,1E0,3E0,8E0,2E0,3E0,1E0,1E0,1E0,7.2E1,1E0,3E0,3E1,9E0,8E0,2E0,1E0,7E0,2E0,1E0,5E0,3E0,7E1,2E0,2.9E1,1E0,6E0,3E0,6E0,2E0],"tree_param":{"num_deleted":"0","num_feature":"22","num_nodes":"83","size_leaf_vector":"1"}},{"base_weights":[2.4484242E2,2.3613992E4,-4.238469E2,1.9121936E3,-4.3202368E2,-5.1196268E2,5.013118E3,4.1812266E3,-5.684943E2,3.036091E2,4.5898193E1,6.2678627E1,2.5091336E2,-7.6687103E2,1.8170297E2,-5.176318E2,-1.0559976E3,-8.862327E2,8.992819E2,-6.809548E2,4.2320438E2,-2.2016138E2,-1.0832279E3,7.6455925E1,-1.2209601E3,-9.2900745E2,1.3752317E3,3.871095E2,-8.210529E2,-8.8159174E2,2.226741E3,1.4020728E1,-4.8049155E2,-1.0921694E3,-8.526954E0,2.1263905E1,-1.3360444E3,-1.3917324E3,4.618357E1,2.8882234E3,7.4543304E2,1.4267166E3,-7.1701587E2,6.808567E1,-8.6649493E2,-5.8072388E1,-1.7144586E2,-3.7872295E1,1.7859526E2,-2.9717123E1,-6.3197417E0,-1.1062188E3,-1.743921E1,-1.3745128E3,-1.7052038E1,-9.393027E1,-3.3932236E1,2.5321997E1,1.8698244E2,-2.501775E1,9.2142896E2,8.6725746E1,2.7037333E1,1.100708E-1,-4.3064983E1,1.11873314E2,-9.35039E2,4.2053547E0,-2.345262E1,-2.906463E1,-1.1331047E3,-7.076713E1,-1.803092E1,5.92644E1,3.7516068E2,-2.9920755E1,3.0831064E1,-5.5740437E1,-3.0315435E1,-9.452029E0,-5.715859E1,-1.1915461E1,2.5856192E1],"categories":[],"categories_nodes":[],"categories_segments":[],"categories_sizes":[],"default_left":[0,0,0,0,0,0,0,0,0,0,0,0,0,0,0,0,0,0,0,0,0,0,0,0,0,0,0,0,0,0,0,0,0,0,0,0,0,0,0,0,0,0,0,0,0,0,0,0,0,0,0,0,0,0,0,0,0,0,0,0,0,0,0,0,0,0,0,0,0,0,0,0,0,0,0,0,0,0,0,0,0,0,0],"id":20,"left_children":[1,3,5,-1,-1,7,9,11,13,-1,-1,-1,-1,15,17,19,21,23,25,27,29,31,33,-1,35,37,39,41,43,45,47,-1,49,51,-1,-1,53,55,-1,57,59,61,63,-1,65,-1,67,-1,-1,-1,-1,69,-1,71,-1,-1,-1,-1,-1,-1,73,-1,-1,-1,-1,75,77,-1,-1,-1,79,-1,-1,-1,81,-1,-1,-1,-1,-1,-1,-1,-1],"loss_changes":[3.9323105E9,3.633598E9,1.1994171E8,0E0,0E0,6.658296E7,1.1774072E7,1.060932E6,3.585655E7,0E0,0E0,0E0,0E0,1.3145104E7,3.9879708E7,1.6268842E7,1.741648E6,1.8845164E7,2.825299E7,1.3635244E7,3.961504E7,6.559968E5,4.99256E5,0E0,4.167854E6,7.2864705E6,2.1669024E7,1.3649401E7,9.01588E6,1.788261E6,3.0805064E7,0E0,4.5820938E4,4.81016E5,0E0,0E0,2.20206E5,8.08193E5,0E0,1.2301468E7,4.62686E6,6.98268E5,6.2452425E5,0E0,5.335384E6,0E0,3.436675E5,0E0,0E0,0E0,0E0,4.84496E5,0E0,1.93354E5,0E0,0E0,0E0,0E0,0E0,0E0,2.00567E6,0E0,0E0,0E0,0E0,2.5200952E6,3.63808E6,0E0,0E0,0E0,5.06192E5,0E0,0E0,0E0,7.328663E5,0E0,0E0,0E0,0E0,0E0,0E0,0E0,0E0],"parents":[2147483647,0,0,1,1,2,2,5,5,6,6,7,7,8,8,13,13,14,14,15,15,16,16,17,17,18,18,19,19,20,20,21,21,22,22,24,24,25,25,26,26,27,27,28,28,29,29,30,30,32,32,33,33,36,36,37,37,39,39,40,40,41,41,42,42,44,44,46,46,51,51,53,53,60,60,65,65,66,66,70,70,74,74],"right_children":[2,4,6,-1,-1,8,10,12,14,-1,-1,-1,-1,16,18,20,22,24,26,28,30,32,34,-1,36,38,40,42,44,46,48,-1,50,52,-1,-1,54,56,-1,58,60,62,64,-1,66,-1,68,-1,-1,-1,-1,70,-1,72,-1,-1,-1,-1,-1,-1,74,-1,-1,-1,-1,76,78,-1,-1,-1,80,-1,-1,-1,82,-1,-1,-1,-1,-1,-1,-1,-1],"split_conditions":[-9.142882E0,2.4402124E-1,1.0148222E0,1.9121936E3,-4.3202368E2,-5.9499383E0,1.1145545E1,-5.4649498E1,3.2949162E0,3.036091E2,4.5898193E1,6.2678627E1,2.5091336E2,4.7708908E-1,4.743766E-2,1.5965775E0,-7.7277434E-1,-6.1013204E-1,-5.029954E-1,-3.8726667E-1,1.2228352E-1,-1.877658E1,6.29419E-1,7.6455925E1,-2.034319E0,1.9178562E1,-2.8011447E-1,-2.5633166E0,-8.924173E-1,8.8058904E-2,-2.953842E-1,1.4020728E1,-1.7172445E1,7.447945E-1,-8.526954E0,2.1263905E1,4.472571E-1,3.8704255E-1,4.618357E1,-2.1732192E0,-5.2446437E-1,-4.0258837E0,-2.9488463E0,6.808567E1,-6.0793716E-1,-5.8072388E1,1.1514665E1,-3.7872295E1,1.7859526E2,-2.9717123E1,-6.3197417E0,-7.301255E-1,-1.743921E1,1.0409617E1,-1.7052038E1,-9.393027E1,-3.3932236E1,2.5321997E1,1.8698244E2,-2.501775E1,1.0155842E-1,8.6725746E1,2.7037333E1,1.100708E-1,-4.3064983E1,-3.4965765E0,6.981021E-2,4.2053547E0,-2.345262E1,-2.906463E1,-8.749764E-1,-7.076713E1,-1.803092E1,5.92644E1,-1.781828E1,-2.9920755E1,3.0831064E1,-5.5740437E1,-3.0315435E1,-9.452029E0,-5.715859E1,-1.1915461E1,2.5856192E1],"split_indices":[2,6,6,0,0,2,0,0,1,0,0,0,0,2,5,1,20,19,7,14,10,0,15,0,4,0,16,2,12,17,7,0,0,13,0,0,10,5,0,3,8,1,0,0,17,0,0,0,0,0,0,6,0,1,0,0,0,0,0,0,19,0,0,0,0,1,15,0,0,0,12,0,0,0,0,0,0,0,0,0,0,0,0],"split_type":[0,0,0,0,0,0,0,0,0,0,0,0,0,0,0,0,0,0,0,0,0,0,0,0,0,0,0,0,0,0,0,0,0,0,0,0,0,0,0,0,0,0,0,0,0,0,0,0,0,0,0,0,0,0,0,0,0,0,0,0,0,0,0,0,0,0,0,0,0,0,0,0,0,0,0,0,0,0,0,0,0,0,0],"sum_hessian":[2.5E2,6E0,2.44E2,4E0,2E0,2.41E2,3E0,2E0,2.39E2,2E0,1E0,1E0,1E0,1.89E2,5E1,1.03E2,8.6E1,2E1,3E1,8.8E1,1.5E1,3E0,8.3E1,2E0,1.8E1,6E0,2.4E1,1E1,7.8E1,9E0,6E0,1E0,2E0,8.2E1,1E0,1E0,1.7E1,5E0,1E0,6E0,1.8E1,5E0,5E0,1E0,7.7E1,6E0,3E0,2E0,4E0,1E0,1E0,8E1,2E0,1.6E1,1E0,2E0,3E0,2E0,4E0,2E0,1.6E1,3E0,2E0,1E0,4E0,5E0,7.2E1,2E0,1E0,5E0,7.5E1,1.5E1,1E0,1E1,6E0,2E0,3E0,4.5E1,2.7E1,1E0,7.4E1,1E0,5E0],"tree_param":{"num_deleted":"0","num_feature":"22","num_nodes":"83","size_leaf_vector":"1"}},{"base_weights":[2.5643341E1,1.753867E4,-4.961304E2,-1.9865132E2,1.3468978E3,-7.317708E2,8.267642E2,-7.717993E2,1.8084756E2,9.888447E1,2.9994163E3,-8.007904E2,1.2421096E2,5.995387E2,-1.2276934E3,1.0547935E3,2.583248E2,1.3172299E3,-8.291234E2,8.5181934E2,-3.4280453E1,-8.415365E1,-3.5154553E2,7.762124E1,-3.5834084E1,7.805994E1,2.0732306E1,-4.7773453E2,-9.662666E2,1.1094681E3,-4.031236E1,2.0181642E0,-2.4781813E1,-7.20761E2,8.886501E1,-8.383736E2,-1.1544225E3,1.3163501E3,1.9552885E1,-8.2274316E2,8.11267E2,-5.405336E2,1.155139E3,-8.6249445E2,1.2450741E2,-9.6951E2,-7.22012E1,1.3663335E3,1.9163319E1,-9.3453375E2,3.964961E1,4.9514233E1,1.1330795E1,-8.4097205E2,3.2055286E1,1.3904124E3,-6.4125185E0,-8.867611E2,-1.4940338E2,-2.3940521E1,3.3278576E1,-1.00691187E3,-1.1122605E1,7.3578384E1,2.9759327E1,-2.6008808E1,-5.4802204E1,2.0824339E1,-5.1348305E1,2.922494E1,8.236223E1,-3.1430796E1,-4.8836975E1,1.0731812E-1,-1.0031772E1,-1.0923929E1,-5.1209164E1],"categories":[],"categories_nodes":[],"categories_segments":[],"categories_sizes":[],"default_left":[0,0,0,0,0,0,0,0,0,0,0,0,0,0,0,0,0,0,0,0,0,0,0,0,0,0,0,0,0,0,0,0,0,0,0,0,0,0,0,0,0,0,0,0,0,0,0,0,0,0,0,0,0,